<?xml version="1.0" encoding="ISO-8859-1"?>
<smile version="1.0" id="Unnamed" numsamples="1000" discsamples="10000">
	<nodes>
		<cpt id="hammer">
			<state id="m2_inf" />
			<state id="m2_1" />
			<state id="m1_0" />
			<state id="v0_1" />
			<state id="v1_2" />
			<state id="v2_sup" />
			<probabilities>0.007374158382801469 0.008744061324601132 0.04092220699870859 0.9253840100282742 0.008802355067910779 0.008773208197703853</probabilities>
		</cpt>
		<cpt id="slbr">
			<state id="v0_1" />
			<state id="v1_2" />
			<state id="v2_3" />
			<state id="v3_sup" />
			<probabilities>0.6847474423625219 0.1239033489740591 0.05333877408300741 0.1380104345804115</probabilities>
		</cpt>
		<cpt id="slr">
			<state id="v0_1" />
			<state id="v1_2" />
			<state id="v2_3" />
			<state id="v3_sup" />
			<probabilities>0.8294325105648386 0.1047538545847224 0.03037103964310067 0.03544259520733831</probabilities>
		</cpt>
		<cpt id="mvq50">
			<state id="q0_50" />
			<state id="q50_75" />
			<state id="q75_90" />
			<state id="q90_100" />
			<probabilities>0.5054358918071162 0.2319507999543159 0.1563729632298522 0.1062403450087157</probabilities>
		</cpt>
		<cpt id="mvq100">
			<state id="q0_50" />
			<state id="q50_75" />
			<state id="q75_90" />
			<state id="q90_100" />
			<probabilities>0.5048821009064614 0.2399661896295435 0.1489988049782881 0.106152904485707</probabilities>
		</cpt>
		<cpt id="mvq200">
			<state id="q0_50" />
			<state id="q50_75" />
			<state id="q75_90" />
			<state id="q90_100" />
			<probabilities>0.5029584076506171 0.2402285114363626 0.1501063859671906 0.1067066949458298</probabilities>
		</cpt>
		<cpt id="ret_low_t1">
			<state id="m_inf_5d3" />
			<state id="m_5d3_2d3" />
			<state id="m_2d3_1d3" />
			<state id="m_1d3_5d4" />
			<state id="m_5d4_3d4" />
			<state id="m_3d4_1d4" />
			<state id="m_1d4_sup" />
			<parents>slr mvq200</parents>
			<probabilities>0.06184631060515582 0.1638796364483696 0.3195668004554295 0.1617265502721106 0.0690632620844131 0.04928131833966084 0.1746361217948604 0.08491489746896487 0.1830750150011934 0.316409426274548 0.1551142048735389 0.06328185404829668 0.04400312457884542 0.1532014777546129 0.1031046384289587 0.1999013094782865 0.3093311035441393 0.1416914764657714 0.05705083686587756 0.04232006419771703 0.1466005710192495 0.1544416392074808 0.2105329983041658 0.2988648744417012 0.1235837986977409 0.04231738170937367 0.03761169339974268 0.132647614239795 0.05515593754252885 0.1637071193731974 0.3377258673718875 0.1763238440416591 0.07121898973147196 0.05054261460265985 0.1453256273365954 0.08138267616824638 0.1783717170914364 0.3444526291334388 0.1727796618269155 0.0646586638220759 0.03457153077709738 0.1237831211807897 0.09961215488292227 0.1850405007959323 0.3327148507314884 0.1477018407114921 0.06405591494178357 0.02849952866400257 0.1423752092723786 0.1672952992381905 0.1852602580964807 0.2818188885109569 0.139635788153342 0.05332526610689658 0.04062084718438848 0.1320436527097448 0.03140945937321338 0.1526910194299021 0.3541376190660703 0.1897580787511134 0.0548114845941878 0.04891647390201846 0.1682758648834945 0.07866284775778078 0.1723052311496638 0.337009182693388 0.1722243892558585 0.06366970191128415 0.05240759193221437 0.1237210552998104 0.08163272431814358 0.2579581212710128 0.292692303796135 0.169973894057906 0.06123973048800107 0.03408942322860441 0.1024138028401972 0.161708840670214 0.1709983215941516 0.3162581437443049 0.1453909857675431 0.03443627213749285 0.03428164947316484 0.1369257866131288 0.04528702876101212 0.1658491671373075 0.3299639815415183 0.1808631042150001 0.08037371256224775 0.04522614487932015 0.152436860903594 0.08127339154607482 0.1555556406623588 0.3637973977529154 0.1906906208470778 0.0600826764514935 0.03184941773885019 0.1167508550012295 0.04897965575203182 0.2010775875643024 0.3837482482535029 0.1342796140640611 0.03674836431651004 0.05481960386565729 0.1403469261839345 0.08717712831841183 0.1917792020121958 0.2908581558487166 0.1743129267084976 0.08707213937701823 0.03494355281984653 0.1338568949153132</probabilities>
		</cpt>
		<cpt id="ret_high_t1">
			<state id="v_inf_1d4" />
			<state id="v_1d4_3d4" />
			<state id="v_3d4_5d4" />
			<state id="v_5d4_1d3" />
			<state id="v_1d3_2d3" />
			<state id="v_2d3_5d3" />
			<state id="v_2d3_sup" />
			<parents>slr mvq200</parents>
			<probabilities>0.1518701656547011 0.04442283382983939 0.06829996321555688 0.1706802674961381 0.3433736455232745 0.1685995150529943 0.05275360922749591 0.1373080263026681 0.04341438932023629 0.06828514861826714 0.1649737042501997 0.3292124021040816 0.1892557111364834 0.06755061826806372 0.1241573975579553 0.0385797545162052 0.0596226905118615 0.1545491571024678 0.3200859010517388 0.2094861647694112 0.09351893449036022 0.1088101197559358 0.03928975824784352 0.05205299429665777 0.1269423612233492 0.2924899243703721 0.22798986669471 0.1524249754111316 0.1872246537043242 0.05628254295081852 0.07236846728458295 0.168864118303305 0.3101765124565662 0.1482099959147768 0.05687370938562628 0.1594046177649585 0.05016056772864794 0.06911566816229787 0.1583087907398188 0.3277588916473701 0.1549908829438098 0.08026058101309685 0.1512350741615147 0.04625966220306545 0.07649355241517496 0.1494872008603149 0.2989830989331054 0.1939286196865741 0.08361279174025042 0.1320135360833741 0.03808655650715405 0.05333131648036329 0.10926909894774 0.3198164169603503 0.1878020579330158 0.1596810170880025 0.1975495053768218 0.04891443324282392 0.07044115236278027 0.1448462775085104 0.3307177435533952 0.1605113532881665 0.04701953466750192 0.1572587565407939 0.04494100679226063 0.07860399257366978 0.1759749779267064 0.2922667339527551 0.1723201973266464 0.07863433488716785 0.1901712618441403 0.05435263392112061 0.04098560817394256 0.1362249600294413 0.3400505722928269 0.129606843807711 0.1086081199308175 0.1198758199401081 0.04274737135869363 0.04293110177748728 0.1962821532572654 0.2824363110113421 0.1795068888435697 0.1362203538115338 0.1975674694865096 0.06696352812763519 0.07870546824371823 0.1407379499738416 0.2731228841126059 0.1708725967952194 0.07203010326046988 0.1906526294117351 0.04945137260678116 0.06361221834416725 0.1731031481843567 0.2687587489413323 0.1520486369138776 0.1023732455977499 0.1766384651692895 0.03057084739591423 0.06100527278632423 0.1706745096021655 0.2989544527232629 0.1889806841426741 0.07317576818036961 0.1048863974157963 0.03493751341228814 0.04084317924707224 0.1570016999095798 0.3833958653140946 0.1397792652227816 0.1391560794783872</probabilities>
		</cpt>
		<cpt id="ret_close_t1">
			<state id="baisse" />
			<state id="hausse" />
			<parents>slr mvq200</parents>
			<probabilities>0.4920528033896686 0.5079471966103316 0.506694642618944 0.4933053573810559 0.5031549301632408 0.4968450698367592 0.4795222528493938 0.5204777471506062 0.5100440822263742 0.4899559177736258 0.5150298343411402 0.4849701656588598 0.4840085101924403 0.5159914898075597 0.4392323828818834 0.5607676171181166 0.4853452953873905 0.5146547046126095 0.5093163852177013 0.4906836147822987 0.5438972380969185 0.4561027619030816 0.4957355189690164 0.5042644810309836 0.5058474769871972 0.4941525230128028 0.5369605325293801 0.4630394674706199 0.4999805529596602 0.5000194470403398 0.4595190244990979 0.5404809755009021</probabilities>
		</cpt>
		<cpt id="ret_low_t2">
			<state id="m_inf_5d3" />
			<state id="m_5d3_2d3" />
			<state id="m_2d3_1d3" />
			<state id="m_1d3_5d4" />
			<state id="s5_5d4_3d4" />
			<state id="s5_3d4_1d4" />
			<state id="s5_1d4_sup" />
			<probabilities>0.1628144225826707 0.2369640617067092 0.2940336352395052 0.1180156809164434 0.04517765014092904 0.03229473313301492 0.1106998162807275</probabilities>
		</cpt>
		<cpt id="ret_high_t2">
			<state id="v_inf_1d4" />
			<state id="v_1d4_3d4" />
			<state id="v_3d4_5d4" />
			<state id="v_5d4_1d3" />
			<state id="v_1d3_2d3" />
			<state id="v_2d3_5d3" />
			<state id="v_2d3_sup" />
			<probabilities>0.1213675711912332 0.01081348917194066 0.0476259873502603 0.1211926899647328 0.300824856451656 0.246728263720887 0.1514471421492901</probabilities>
		</cpt>
		<cpt id="ret_close_t2">
			<state id="baisse" />
			<state id="hausse" />
			<probabilities>0.4949138714155303 0.5050861285844697</probabilities>
		</cpt>
		<utility id="Node1">
			<parents>ret_low_t1</parents>
			<utilities>-0.5 -0.25 -0.1 -0.05 -0.03 -0.015 0</utilities>
		</utility>
		<utility id="Copy_of_Node1">
			<parents>ret_high_t1</parents>
			<utilities>0 0.015 0.03 0.05 0.1 0.25 0.5</utilities>
		</utility>
	</nodes>
	<extensions>
		<genie version="1.0" app="GeNIe 2.0.5406.0" name="data_btc_usdc_3m" faultnameformat="nodestate">
			<node id="hammer">
				<name>hammer</name>
				<interior color="e5f6f7" />
				<outline color="000080" />
				<font color="000000" name="Arial" size="8" />
				<position>177 93 249 141</position>
				<barchart active="true" width="128" height="112" />
			</node>
			<node id="slbr">
				<name>slbr</name>
				<interior color="e5f6f7" />
				<outline color="000080" />
				<font color="000000" name="Arial" size="8" />
				<position>362 78 434 126</position>
				<barchart active="true" width="128" height="80" />
			</node>
			<node id="slr">
				<name>slr</name>
				<interior color="e5f6f7" />
				<outline color="000080" />
				<font color="000000" name="Arial" size="8" />
				<position>248 296 320 344</position>
				<barchart active="true" width="128" height="80" />
			</node>
			<node id="mvq50">
				<name>mvq50</name>
				<interior color="e5f6f7" />
				<outline color="000080" />
				<font color="000000" name="Arial" size="8" />
				<position>720 75 792 123</position>
				<barchart active="true" width="128" height="80" />
			</node>
			<node id="mvq100">
				<name>mvq100</name>
				<interior color="e5f6f7" />
				<outline color="000080" />
				<font color="000000" name="Arial" size="8" />
				<position>922 78 994 126</position>
				<barchart active="true" width="128" height="80" />
			</node>
			<node id="mvq200">
				<name>mvq200</name>
				<interior color="e5f6f7" />
				<outline color="000080" />
				<font color="000000" name="Arial" size="8" />
				<position>241 438 313 486</position>
				<barchart active="true" width="128" height="80" />
			</node>
			<node id="ret_low_t1">
				<name>ret_low_t1</name>
				<interior color="e5f6f7" />
				<outline color="000080" />
				<font color="000000" name="Arial" size="8" />
				<position>619 499 691 547</position>
				<barchart active="true" width="128" height="128" />
			</node>
			<node id="ret_high_t1">
				<name>ret_high_t1</name>
				<interior color="e5f6f7" />
				<outline color="000080" />
				<font color="000000" name="Arial" size="8" />
				<position>617 252 689 300</position>
				<barchart active="true" width="128" height="128" />
			</node>
			<node id="ret_close_t1">
				<name>ret_close_t1</name>
				<interior color="e5f6f7" />
				<outline color="000080" />
				<font color="000000" name="Arial" size="8" />
				<position>619 372 691 420</position>
				<barchart active="true" width="128" height="64" />
			</node>
			<node id="ret_low_t2">
				<name>ret_low_t2</name>
				<interior color="e5f6f7" />
				<outline color="000080" />
				<font color="000000" name="Arial" size="8" />
				<position>1060 516 1132 564</position>
				<barchart active="true" width="128" height="128" />
			</node>
			<node id="ret_high_t2">
				<name>ret_high_t2</name>
				<interior color="e5f6f7" />
				<outline color="000080" />
				<font color="000000" name="Arial" size="8" />
				<position>1067 243 1139 291</position>
				<barchart active="true" width="128" height="128" />
			</node>
			<node id="ret_close_t2">
				<name>ret_close_t2</name>
				<interior color="e5f6f7" />
				<outline color="000080" />
				<font color="000000" name="Arial" size="8" />
				<position>1068 374 1140 422</position>
				<barchart active="true" width="128" height="64" />
			</node>
			<node id="Node1">
				<name>Esp Pct Low t1</name>
				<interior color="e5f6f7" />
				<outline color="000080" />
				<font color="000000" name="Arial" size="8" />
				<position>540 663 590 691</position>
				<barchart active="true" width="162" height="80" />
			</node>
			<node id="Copy_of_Node1">
				<name>Esp Pct High t1</name>
				<interior color="e5f6f7" />
				<outline color="000080" />
				<font color="000000" name="Arial" size="8" />
				<position>735 667 785 695</position>
				<barchart active="true" width="162" height="80" />
			</node>
		</genie>
	</extensions>
</smile>
