<?xml version="1.0" encoding="ISO-8859-1"?>
<smile version="1.0" id="Unnamed" numsamples="1000" discsamples="10000">
	<nodes>
		<cpt id="ret_low_t3">
			<state id="m1" />
			<state id="m05" />
			<state id="m03" />
			<state id="v0" />
			<probabilities>0.06162263492893888 0.1670662946493446 0.18816665213474 0.5831444182869765</probabilities>
		</cpt>
		<cpt id="ret_low_t4">
			<state id="m1" />
			<state id="m05" />
			<state id="m03" />
			<state id="v0" />
			<parents>ret_low_t3</parents>
			<probabilities>0.9996463932107497 0.0001178689297501179 0.0001178689297501179 0.0001178689297501179 0.1158897199512959 0.8840233084014611 4.348582362149939e-005 4.348582362149939e-005 0.01687258687258687 0.1796525096525097 0.8034362934362935 3.861003861003861e-005 0.00240468477448293 0.02812110640418639 0.07770994268626963 0.891764266135061</probabilities>
		</cpt>
		<cpt id="ret_low_t5">
			<state id="m1" />
			<state id="m05" />
			<state id="m03" />
			<state id="v0" />
			<parents>ret_low_t4</parents>
			<probabilities>0.9997452445652174 8.491847826086956e-005 8.491847826086956e-005 8.491847826086956e-005 0.1081130690161527 0.8918135095447871 3.671071953010279e-005 3.671071953010279e-005 0.0112762496302869 0.1519151138716356 0.8367716651878142 3.697131026323573e-005 0.00185816474796021 0.02331787191237286 0.06394601542416452 0.9108779479155024</probabilities>
		</cpt>
		<cpt id="ret_high_t5">
			<state id="v0" />
			<state id="p03" />
			<state id="p05" />
			<state id="p1" />
			<parents>ret_low_t5</parents>
			<probabilities>0.6894299287410927 0.1336104513064133 0.1143441541303774 0.06261546582211666 0.6927706836924714 0.1470138334663474 0.112829209896249 0.04738627294493217 0.6049169484051153 0.1931868293399971 0.1458547699544319 0.05604145230045568 0.2786042944785276 0.2506288343558282 0.3280521472392638 0.1427147239263804</probabilities>
		</cpt>
		<cpt id="ret_high_t4">
			<state id="v0" />
			<state id="p03" />
			<state id="p05" />
			<state id="p1" />
			<parents>ret_high_t5</parents>
			<probabilities>0.9999544820052194 1.517266492686776e-005 1.517266492686776e-005 1.517266492686776e-005 0.1691984025103409 0.8307302809870204 3.56582513193553e-005 3.56582513193553e-005 0.04871407951712374 0.1358417530507808 0.8154113633381446 3.280409395092508e-005 0.01128445925477128 0.0188579218418661 0.1963798848833687 0.773477734019994</probabilities>
		</cpt>
		<cpt id="ret_high_t3">
			<state id="v0" />
			<state id="p03" />
			<state id="p05" />
			<state id="p1" />
			<parents>ret_low_t4 ret_high_t4</parents>
			<probabilities>0.9996426869938065 0.0001191043353978085 0.0001191043353978085 0.0001191043353978085 0.09059945504087193 0.9080381471389646 0.0006811989100817438 0.0006811989100817438 0.07404458598726114 0.06767515923566879 0.8574840764331211 0.0007961783439490446 0.05538922155688623 0.03742514970059881 0.1152694610778443 0.7919161676646707 0.9998490641980278 5.03119339907426e-005 5.03119339907426e-005 5.03119339907426e-005 0.1770718232044199 0.8223756906077349 0.000276243093922652 0.000276243093922652 0.1227611940298508 0.1063432835820896 0.7705223880597015 0.000373134328358209 0.04182156133828996 0.03438661710037175 0.1942379182156134 0.7295539033457249 0.9998369210697977 5.435964340073929e-005 5.435964340073929e-005 5.435964340073929e-005 0.2486251145737855 0.750916590284143 0.000229147571035747 0.000229147571035747 0.1304213135068154 0.1775092936802974 0.6917596034696406 0.0003097893432465923 0.02705223880597015 0.05317164179104478 0.269589552238806 0.6501865671641791 0.9998829405337912 3.901982206961137e-005 3.901982206961137e-005 3.901982206961137e-005 0.2214489259096887 0.7784414730381412 5.480052608505042e-005 5.480052608505042e-005 0.06054187192118227 0.1980788177339902 0.7413300492610838 4.926108374384237e-005 0.01308688613059903 0.02981651376146789 0.2602536427415003 0.6968429573664329</probabilities>
		</cpt>
		<cpt id="ret_high_t2">
			<state id="v0" />
			<state id="p03" />
			<state id="p05" />
			<state id="p1" />
			<parents>ret_high_t3</parents>
			<probabilities>0.9999627106846317 1.242977178938995e-005 1.242977178938995e-005 1.242977178938995e-005 0.3268236857649143 0.6731024808033077 3.691671588895452e-005 3.691671588895452e-005 0.13858837899145 0.23804746117606 0.6233205374280231 4.362240446693422e-005 0.03971571906354515 0.05476588628762542 0.3100613154960981 0.5954570791527313</probabilities>
		</cpt>
		<cpt id="ret_close_t5">
			<state id="rouge" />
			<state id="vert" />
			<parents>ret_high_t2 ret_high_t5</parents>
			<probabilities>0.7868240577775081 0.2131759422224919 0.1979939543830723 0.8020060456169277 0.07857424182749113 0.9214257581725088 0.03617810760667903 0.9638218923933209 0.5 0.5 0.5195671509042395 0.4804328490957605 0.09715750232991612 0.9028424976700838 0.02281746031746032 0.9771825396825397 0.5 0.5 0.5 0.5 0.3078624914908101 0.6921375085091899 0.02978187919463087 0.9702181208053691 0.5 0.5 0.5 0.5 0.5 0.5 0.1230121608980355 0.8769878391019644</probabilities>
		</cpt>
		<cpt id="slbr">
			<state id="v0_1" />
			<state id="v1_15" />
			<state id="v15_2" />
			<state id="v2_p" />
			<parents>ret_close_t5</parents>
			<probabilities>0.6827343012275732 0.07750531161473088 0.04840946647780926 0.1913509206798867 0.6869703389830508 0.0736515116811727 0.0481132615666514 0.1912648877691251</probabilities>
		</cpt>
		<cpt id="ret_close_t3">
			<state id="rouge" />
			<state id="vert" />
			<parents>ret_low_t4 ret_high_t4</parents>
			<probabilities>0.9897570271557884 0.01024297284421153 0.9005449591280653 0.0994550408719346 0.7563694267515924 0.2436305732484076 0.3922155688622755 0.6077844311377246 0.955624874220165 0.04437512577983498 0.6756906077348067 0.3243093922651934 0.4574626865671642 0.5425373134328358 0.1245353159851301 0.8754646840148699 0.8657316808001739 0.134268319199826 0.4505041246562786 0.5494958753437214 0.2261462205700124 0.7738537794299876 0.06156716417910447 0.9384328358208955 0.5056188543780241 0.494381145621976 0.1176019289785182 0.8823980710214818 0.03339901477832512 0.9666009852216749 0.007285483000539665 0.9927145169994603</probabilities>
		</cpt>
		<cpt id="ret_close_t2">
			<state id="rouge" />
			<state id="vert" />
			<parents>ret_close_t3</parents>
			<probabilities>0.8022013501614323 0.1977986498385677 0.193489898117769 0.806510101882231</probabilities>
		</cpt>
		<cpt id="mvq">
			<state id="q0_50" />
			<state id="q50_75" />
			<state id="q75_100" />
			<parents>ret_close_t2 ret_low_t3 ret_low_t5 ret_close_t5</parents>
			<probabilities>0.4164728682170543 0.2624031007751938 0.3211240310077519 0.3333333333333333 0.2402159244264508 0.4264507422402159 0.3333333333333333 0.3333333333333333 0.3333333333333333 0.3333333333333333 0.3333333333333333 0.3333333333333333 0.3333333333333333 0.3333333333333333 0.3333333333333333 0.3333333333333333 0.3333333333333333 0.3333333333333333 0.3333333333333333 0.3333333333333333 0.3333333333333333 0.3333333333333333 0.3333333333333333 0.3333333333333333 0.4862508383635145 0.2468142186452046 0.266934942991281 0.3809523809523809 0.2380952380952381 0.3809523809523809 0.5113071008593396 0.231456354590683 0.2572365445499774 0.4651976215459951 0.266876530255334 0.2679258481986709 0.3333333333333333 0.3333333333333333 0.3333333333333333 0.3333333333333333 0.3333333333333333 0.3333333333333333 0.3333333333333333 0.3333333333333333 0.3333333333333333 0.3333333333333333 0.3333333333333333 0.3333333333333333 0.5403348554033485 0.243531202435312 0.2161339421613394 0.6666666666666667 0.1666666666666667 0.1666666666666667 0.5293961159882948 0.2484703378558127 0.2221335461558925 0.5505050505050506 0.202020202020202 0.2474747474747475 0.5151358789129686 0.2530099759201926 0.2318541451668386 0.5182196135974566 0.2636341403766202 0.2181462460259232 0.3333333333333333 0.3333333333333333 0.3333333333333333 0.3333333333333333 0.3333333333333333 0.3333333333333333 0.5376344086021506 0.3118279569892473 0.1505376344086022 0.3333333333333333 0.08333333333333333 0.5833333333333334 0.572570725707257 0.2330873308733087 0.1943419434194342 0.4111111111111111 0.3444444444444444 0.2444444444444444 0.5496311200536552 0.2437961099932931 0.2065727699530516 0.6224188790560473 0.224188790560472 0.1533923303834809 0.5448053443906934 0.253167472932504 0.2020271826768026 0.5715177039463423 0.2228981438153174 0.2055841522383404 0.3440860215053763 0.1989247311827957 0.4569892473118279 0.1087719298245614 0.2245614035087719 0.6666666666666666 0.3333333333333333 0.3333333333333333 0.3333333333333333 0.3333333333333333 0.3333333333333333 0.3333333333333333 0.3333333333333333 0.3333333333333333 0.3333333333333333 0.3333333333333333 0.3333333333333333 0.3333333333333333 0.3333333333333333 0.3333333333333333 0.3333333333333333 0.3333333333333333 0.3333333333333333 0.3333333333333333 0.4371980676328502 0.1908212560386473 0.3719806763285025 0.2380952380952381 0.3095238095238095 0.4523809523809523 0.4088050314465408 0.2352201257861635 0.3559748427672956 0.3472868217054264 0.2310077519379845 0.4217054263565891 0.3333333333333333 0.3333333333333333 0.3333333333333333 0.3333333333333333 0.3333333333333333 0.3333333333333333 0.3333333333333333 0.3333333333333333 0.3333333333333333 0.3333333333333333 0.3333333333333333 0.3333333333333333 0.497991967871486 0.1726907630522088 0.3293172690763052 0.06666666666666667 0.2666666666666667 0.6666666666666667 0.463030303030303 0.2703030303030303 0.2666666666666667 0.3978494623655914 0.1397849462365591 0.4623655913978495 0.5025176233635449 0.2396777442094662 0.2578046324269889 0.4286231884057971 0.2427536231884058 0.3286231884057971 0.3333333333333333 0.3333333333333333 0.3333333333333333 0.3333333333333333 0.3333333333333333 0.3333333333333333 0.4837092731829573 0.1679197994987469 0.3483709273182957 0.4444444444444444 0.2777777777777778 0.2777777777777778 0.5413022351797862 0.2322643343051506 0.2264334305150632 0.4666666666666667 0.2266666666666667 0.3066666666666667 0.5087535014005602 0.2461484593837535 0.2450980392156863 0.4539363484087102 0.23785594639866 0.3082077051926299 0.538955405170918 0.2344265139684193 0.2266180808606629 0.5067913811199605 0.2343335185528184 0.2588751003272211</probabilities>
		</cpt>
		<cpt id="ret_low_t2">
			<state id="m1" />
			<state id="m05" />
			<state id="m03" />
			<state id="v0" />
			<parents>ret_low_t3</parents>
			<probabilities>0.6087930221593588 0.2971475719000471 0.05528052805280528 0.03877887788778878 4.348582362149939e-005 0.6380674899982606 0.2230387893546704 0.1388502348234475 3.861003861003861e-005 3.861003861003861e-005 0.6738610038610039 0.3260617760617761 1.24595066035385e-005 1.24595066035385e-005 1.24595066035385e-005 0.9999626214801893</probabilities>
		</cpt>
		<cpt id="ret_low_t1">
			<state id="m1" />
			<state id="m05" />
			<state id="m03" />
			<state id="v0" />
			<parents>ret_low_t2</parents>
			<probabilities>0.3887383900928793 0.3616486068111455 0.1317724458204334 0.1178405572755418 5.815305885089556e-005 0.4266689927890207 0.2650034891835311 0.3082693649685974 4.338018393197987e-005 4.338018393197987e-005 0.4791341315287177 0.5207791081034183 1.084316446911867e-005 1.084316446911867e-005 1.084316446911867e-005 0.9999674705065926</probabilities>
		</cpt>
		<cpt id="ret_high_t1">
			<state id="v0" />
			<state id="p03" />
			<state id="p05" />
			<state id="p1" />
			<parents>ret_high_t2</parents>
			<probabilities>0.9999676598680522 1.078004398257945e-005 1.078004398257945e-005 1.078004398257945e-005 0.5270303936223218 0.4728865636937386 4.152134196977246e-005 4.152134196977246e-005 0.3003753935577622 0.283664325502543 0.4158997335916687 6.054734802615645e-005 0.1078110383536015 0.122778297474275 0.3800280636108513 0.3893826005612722</probabilities>
		</cpt>
		<cpt id="ret_close_t1">
			<state id="rouge" />
			<state id="vert" />
			<parents>slbr ret_low_t2 ret_close_t3 ret_high_t5</parents>
			<probabilities>0.9703770197486535 0.0296229802513465 0.806930693069307 0.1930693069306931 0.7635135135135136 0.2364864864864865 0.7571428571428571 0.2428571428571429 0.8125 0.1875 0.9444444444444444 0.05555555555555555 0.8255813953488372 0.1744186046511628 0.6948051948051949 0.3051948051948052 0.9272406847935549 0.07275931520644512 0.7116182572614108 0.2883817427385892 0.7083333333333334 0.2916666666666667 0.5769230769230769 0.4230769230769231 0.9294871794871794 0.07051282051282051 0.8716814159292036 0.1283185840707965 0.6966019417475727 0.3033980582524272 0.5292553191489362 0.4707446808510638 0.8813963573287077 0.1186036426712923 0.6357142857142857 0.3642857142857143 0.5 0.5 0.5208333333333333 0.4791666666666666 0.8378995433789954 0.1621004566210046 0.7825396825396825 0.2174603174603175 0.6192307692307693 0.3807692307692307 0.4535864978902953 0.5464135021097046 0.5941977077363897 0.4058022922636103 0.2966008771929824 0.7033991228070176 0.2306843267108168 0.7693156732891833 0.3645833333333333 0.6354166666666666 0.4122481442205727 0.5877518557794275 0.2479234380642832 0.7520765619357169 0.1678705189941145 0.8321294810058855 0.09778708133971291 0.9022129186602871 0.9931506849315068 0.00684931506849315 0.9583333333333333 0.04166666666666666 0.9500000000000001 0.05 0.7000000000000001 0.3 0.8333333333333333 0.1666666666666667 0.625 0.375 0.7857142857142857 0.2142857142857143 0.7000000000000001 0.3 0.9149484536082474 0.08505154639175258 0.8157894736842105 0.1842105263157895 0.7833333333333333 0.2166666666666667 0.5 0.5 0.9444444444444444 0.05555555555555555 0.8500000000000001 0.15 0.8333333333333333 0.1666666666666667 0.625 0.375 0.9235294117647058 0.07647058823529412 0.5975609756097561 0.4024390243902439 0.46875 0.53125 0.75 0.25 0.7678571428571428 0.2321428571428571 0.7727272727272727 0.2272727272727273 0.6477272727272727 0.3522727272727273 0.4473684210526315 0.5526315789473684 0.6148514851485148 0.3851485148514852 0.3095238095238095 0.6904761904761906 0.2019230769230769 0.7980769230769231 0.08333333333333333 0.9166666666666666 0.4760765550239234 0.5239234449760766 0.2403508771929825 0.7596491228070176 0.2131336405529954 0.7868663594470046 0.1305555555555556 0.8694444444444445 0.9239130434782609 0.07608695652173914 0.9166666666666666 0.08333333333333333 0.6818181818181819 0.3181818181818182 0.8333333333333333 0.1666666666666667 0.5 0.5 0.25 0.75 0.625 0.375 0.25 0.75 0.9471544715447155 0.05284552845528456 0.7727272727272727 0.2272727272727273 0.4090909090909091 0.5909090909090909 0.375 0.625 0.9166666666666666 0.08333333333333333 0.8333333333333334 0.1666666666666667 0.7250000000000001 0.275 0.6764705882352942 0.3235294117647059 0.906060606060606 0.09393939393939393 0.6904761904761905 0.3095238095238095 0.45 0.55 0.25 0.75 0.75 0.25 0.6911764705882353 0.3088235294117647 0.7592592592592592 0.2407407407407407 0.4411764705882353 0.5588235294117647 0.6127450980392157 0.3872549019607843 0.3412698412698413 0.6587301587301587 0.2407407407407407 0.7592592592592592 0.611111111111111 0.3888888888888888 0.4301470588235294 0.5698529411764706 0.2839195979899498 0.7160804020100503 0.1934865900383142 0.8065134099616857 0.1347826086956522 0.8652173913043478 0.9763513513513514 0.02364864864864865 0.9318181818181819 0.06818181818181818 0.78125 0.21875 0.8333333333333333 0.1666666666666667 0.5 0.5 0.9 0.1 0.9375 0.0625 0.59375 0.40625 0.9432270916334661 0.05677290836653386 0.7933333333333333 0.2066666666666667 0.3974358974358974 0.6025641025641025 0.5625 0.4375 0.9444444444444444 0.05555555555555555 0.8375 0.1625 0.8240740740740741 0.1759259259259259 0.520408163265306 0.4795918367346939 0.866412213740458 0.133587786259542 0.6807228915662651 0.319277108433735 0.5487804878048781 0.451219512195122 0.3571428571428571 0.6428571428571428 0.8467741935483871 0.1532258064516129 0.7045454545454546 0.2954545454545455 0.6467391304347826 0.3532608695652174 0.3916666666666667 0.6083333333333333 0.6037212984956453 0.3962787015043547 0.3373287671232876 0.6626712328767123 0.2456896551724138 0.7543103448275862 0.3148148148148148 0.6851851851851851 0.444954128440367 0.555045871559633 0.2439797211660329 0.7560202788339671 0.173728813559322 0.826271186440678 0.08850574712643677 0.9114942528735632</probabilities>
		</cpt>
		<cpt id="ret_close_t4">
			<state id="rouge" />
			<state id="vert" />
			<parents>slbr ret_low_t4 ret_close_t5</parents>
			<probabilities>0.9827397260273972 0.01726027397260274 0.3547794117647059 0.6452205882352942 0.9524943946188341 0.04750560538116592 0.3876673040152964 0.6123326959847036 0.903725626740947 0.09627437325905293 0.2854297097324986 0.7145702902675014 0.6279104928938615 0.3720895071061385 0.08408021510194937 0.9159197848980507 0.9704301075268817 0.02956989247311828 0.3 0.7000000000000001 0.9501216545012166 0.04987834549878346 0.4330357142857142 0.5669642857142857 0.9024767801857586 0.09752321981424149 0.2743589743589744 0.7256410256410256 0.628463476070529 0.371536523929471 0.08611691022964509 0.9138830897703548 0.9594594594594594 0.04054054054054054 0.275 0.7250000000000001 0.9705882352941176 0.02941176470588235 0.3776595744680851 0.6223404255319149 0.8688888888888889 0.1311111111111111 0.2375 0.7625 0.6373390557939914 0.3626609442060086 0.0680327868852459 0.9319672131147541 0.9811529933481153 0.0188470066518847 0.4672131147540984 0.5327868852459017 0.9563758389261744 0.0436241610738255 0.3315972222222222 0.6684027777777778 0.8966584158415841 0.1033415841584158 0.3187633262260128 0.6812366737739872 0.6626059322033898 0.3373940677966102 0.08412509897070466 0.9158749010292953</probabilities>
		</cpt>
	</nodes>
	<extensions>
		<genie version="1.0" app="GeNIe 2.0.5406.0" name="ml_data_indic_BTC_USDC_3m_1609455600_1615672800_disc" faultnameformat="nodestate">
			<node id="slbr">
				<name>slbr</name>
				<interior color="e5f6f7" />
				<outline color="000080" />
				<font color="000000" name="Arial" size="8" />
				<position>778 10 850 58</position>
			</node>
			<node id="mvq">
				<name>mvq</name>
				<interior color="e5f6f7" />
				<outline color="000080" />
				<font color="000000" name="Arial" size="8" />
				<position>778 74 850 122</position>
			</node>
			<node id="ret_low_t1">
				<name>ret_low_t1</name>
				<interior color="e5f6f7" />
				<outline color="000080" />
				<font color="000000" name="Arial" size="8" />
				<position>202 10 274 58</position>
			</node>
			<node id="ret_high_t1">
				<name>ret_high_t1</name>
				<interior color="e5f6f7" />
				<outline color="000080" />
				<font color="000000" name="Arial" size="8" />
				<position>682 10 754 58</position>
			</node>
			<node id="ret_close_t1">
				<name>ret_close_t1</name>
				<interior color="e5f6f7" />
				<outline color="000080" />
				<font color="000000" name="Arial" size="8" />
				<position>874 10 946 58</position>
			</node>
			<node id="ret_low_t2">
				<name>ret_low_t2</name>
				<interior color="e5f6f7" />
				<outline color="000080" />
				<font color="000000" name="Arial" size="8" />
				<position>106 10 178 58</position>
			</node>
			<node id="ret_high_t2">
				<name>ret_high_t2</name>
				<interior color="e5f6f7" />
				<outline color="000080" />
				<font color="000000" name="Arial" size="8" />
				<position>586 10 658 58</position>
			</node>
			<node id="ret_close_t2">
				<name>ret_close_t2</name>
				<interior color="e5f6f7" />
				<outline color="000080" />
				<font color="000000" name="Arial" size="8" />
				<position>586 74 658 122</position>
			</node>
			<node id="ret_low_t3">
				<name>ret_low_t3</name>
				<interior color="e5f6f7" />
				<outline color="000080" />
				<font color="000000" name="Arial" size="8" />
				<position>10 10 82 58</position>
			</node>
			<node id="ret_high_t3">
				<name>ret_high_t3</name>
				<interior color="e5f6f7" />
				<outline color="000080" />
				<font color="000000" name="Arial" size="8" />
				<position>490 10 562 58</position>
			</node>
			<node id="ret_close_t3">
				<name>ret_close_t3</name>
				<interior color="e5f6f7" />
				<outline color="000080" />
				<font color="000000" name="Arial" size="8" />
				<position>490 74 562 122</position>
			</node>
			<node id="ret_low_t4">
				<name>ret_low_t4</name>
				<interior color="e5f6f7" />
				<outline color="000080" />
				<font color="000000" name="Arial" size="8" />
				<position>106 74 178 122</position>
			</node>
			<node id="ret_high_t4">
				<name>ret_high_t4</name>
				<interior color="e5f6f7" />
				<outline color="000080" />
				<font color="000000" name="Arial" size="8" />
				<position>394 10 466 58</position>
			</node>
			<node id="ret_close_t4">
				<name>ret_close_t4</name>
				<interior color="e5f6f7" />
				<outline color="000080" />
				<font color="000000" name="Arial" size="8" />
				<position>874 74 946 122</position>
			</node>
			<node id="ret_low_t5">
				<name>ret_low_t5</name>
				<interior color="e5f6f7" />
				<outline color="000080" />
				<font color="000000" name="Arial" size="8" />
				<position>202 74 274 122</position>
			</node>
			<node id="ret_high_t5">
				<name>ret_high_t5</name>
				<interior color="e5f6f7" />
				<outline color="000080" />
				<font color="000000" name="Arial" size="8" />
				<position>298 10 370 58</position>
			</node>
			<node id="ret_close_t5">
				<name>ret_close_t5</name>
				<interior color="e5f6f7" />
				<outline color="000080" />
				<font color="000000" name="Arial" size="8" />
				<position>682 74 754 122</position>
			</node>
		</genie>
	</extensions>
</smile>
