<?xml version="1.0" encoding="ISO-8859-1"?>
<smile version="1.0" id="Unnamed" numsamples="1000" discsamples="10000">
	<nodes>
		<cpt id="hammer">
			<state id="m2_inf" />
			<state id="m2_1" />
			<state id="m1_0" />
			<state id="v0_1" />
			<state id="v1_2" />
			<state id="v2_sup" />
			<probabilities>0.007374158384097429 0.008744061325016747 0.04092220700107836 0.9253840100265237 0.00880235506718356 0.008773208196100194</probabilities>
		</cpt>
		<cpt id="slbr">
			<state id="v0_1" />
			<state id="v1_2" />
			<state id="v2_3" />
			<state id="v3_sup" />
			<probabilities>0.6847474423620624 0.1239033489754874 0.05333877408260224 0.1380104345798479</probabilities>
		</cpt>
		<cpt id="slr">
			<state id="v0_1" />
			<state id="v1_2" />
			<state id="v2_3" />
			<state id="v3_sup" />
			<probabilities>0.8294325104200106 0.1047538546736982 0.03037103966889079 0.03544259523740039</probabilities>
		</cpt>
		<cpt id="mvq50">
			<state id="q0_50" />
			<state id="q50_75" />
			<state id="q75_90" />
			<state id="q90_100" />
			<probabilities>0.5054358914570622 0.2319508000816075 0.1563729633623792 0.106240345098951</probabilities>
		</cpt>
		<cpt id="mvq100">
			<state id="q0_50" />
			<state id="q50_75" />
			<state id="q75_90" />
			<state id="q90_100" />
			<probabilities>0.5048821009064677 0.2399661896295432 0.1489988049782856 0.1061529044857035</probabilities>
		</cpt>
		<cpt id="mvq200">
			<state id="q0_50" />
			<state id="q50_75" />
			<state id="q75_90" />
			<state id="q90_100" />
			<probabilities>0.5029584074149709 0.2402285114692928 0.1501063860794511 0.1067066950362852</probabilities>
		</cpt>
		<cpt id="ret_low_t1">
			<state id="m_inf_5d3" />
			<state id="m_5d3_2d3" />
			<state id="m_2d3_1d3" />
			<state id="m_1d3_5d4" />
			<state id="m_5d4_3d4" />
			<state id="m_3d4_1d4" />
			<state id="m_1d4_sup" />
			<parents>slr mvq200</parents>
			<probabilities>0.06184493658457837 0.1638786701579989 0.3195668772071388 0.1617269382669539 0.06906364958787371 0.0492815992031052 0.1746373289923511 0.08491537888426558 0.1830757909086229 0.3164091244005701 0.1551140544739367 0.06328182487552211 0.04400294336736004 0.1532008830897226 0.1031096551281975 0.1999064752944082 0.309328969402418 0.1416880999243726 0.05704933399646234 0.04231938290420705 0.1465980833499344 0.1544660764146383 0.2105439855650568 0.2988582963660428 0.1235728713657931 0.04231027773806961 0.03760913450600863 0.1326393580443906 0.05514073245553532 0.1636990281971144 0.3377369264451044 0.1763354327462926 0.07122343225587341 0.0505456616616548 0.1453187862384251 0.08138238605363947 0.1783723515780528 0.3444815730836676 0.1727981956145066 0.06465997624033638 0.03455965649307026 0.1237458609367269 0.09964407132306025 0.185053357905499 0.3327401684737682 0.1476868593973561 0.06405693768195699 0.02846980378093074 0.1423488014374287 0.1675121399980714 0.1852791398939151 0.2817261237683822 0.1395940146535528 0.05329955763571366 0.04060916670173263 0.1319798573486323 0.03131134660033831 0.152641974647324 0.3542073000372384 0.1898237462475608 0.05479455368084802 0.04892366498808988 0.1682974137986006 0.07865172704387231 0.1722847210117525 0.3370783924727365 0.172284419362895 0.06367040933548987 0.05243435668631423 0.1235959740869396 0.08163265354269017 0.2584997170356149 0.2925181912418658 0.170067391176067 0.06122459277356758 0.0340141177245176 0.102043336505677 0.1623873630565272 0.1709406637423233 0.3162394757944432 0.1452999236081995 0.03419013789947026 0.03418882753790817 0.1367536083611282 0.04522623248956691 0.1658291792092597 0.3299832173604373 0.1809044533515301 0.0804019627300372 0.04522613067705571 0.152428824182113 0.08127208940685238 0.1554773085938815 0.3639570330906793 0.1908122909184756 0.06007071364947709 0.03180228668217906 0.116608277658455 0.04878169488334565 0.2012186520458442 0.384143928777294 0.1341471491761458 0.03658635372313036 0.05487769456888278 0.1402445268253572 0.08720911634866134 0.1918599953873537 0.290698602056929 0.1744179937960029 0.08720850947616773 0.03488406677930547 0.1337217161555798</probabilities>
		</cpt>
		<cpt id="ret_high_t1">
			<state id="v_inf_1d4" />
			<state id="v_1d4_3d4" />
			<state id="v_3d4_5d4" />
			<state id="v_5d4_1d3" />
			<state id="v_1d3_2d3" />
			<state id="v_2d3_5d3" />
			<state id="v_2d3_sup" />
			<parents>slr mvq200</parents>
			<probabilities>0.1518706184179383 0.04442285000234799 0.06830013186862963 0.1706809189524914 0.343374748309656 0.1685985979674523 0.05275213448148442 0.1373068434411864 0.04341427521914659 0.06828550399479374 0.1649742456892658 0.329212656327561 0.1892568063141755 0.06754966901387112 0.1241524444594572 0.03857844314037312 0.05962123017543523 0.1545475804481306 0.320084171552373 0.2094926335121013 0.09352349671212959 0.1087978550250943 0.0392881133797408 0.05204835615787064 0.1269308299299172 0.2924781772152972 0.2280053675282627 0.1524513007638171 0.1872486938310587 0.05628948481225649 0.07237219774241364 0.1688684639025851 0.3101665766432012 0.1481907060826147 0.05686387698587004 0.1594202724028563 0.05016721666784927 0.06911928248124977 0.1583054663593985 0.3277591969840171 0.1549610143462626 0.08026755075836647 0.1512455329914059 0.0462633386540019 0.07651242194034667 0.1494662294864304 0.2989324744208403 0.1939501396442035 0.08362986286277131 0.1319797811040085 0.03807110520634722 0.05329957295311485 0.1091373901239183 0.3197970035872414 0.1878172203998304 0.1598979266255393 0.1976514638776891 0.04892366100242739 0.07045008037570856 0.1448141528857588 0.3307240580928777 0.160469748736891 0.04696683502864746 0.1573032043154507 0.04494380972683679 0.07865150743497637 0.1760297573803235 0.2921353236341521 0.1722847768556965 0.07865162065256405 0.1904741301475956 0.05442130158054811 0.04081747032549961 0.136055574054253 0.3401354768398164 0.1292541002959981 0.1088419467562893 0.1196599645757636 0.04273514721490417 0.04273670425235158 0.1965786623157395 0.2820545450085707 0.1794873465156234 0.1367476301170469 0.1976547950994758 0.06700161125104956 0.07872693222114334 0.1407035751671803 0.273031978067078 0.1708543020013298 0.07202680619274325 0.190812157145816 0.04946989919931965 0.06360426837445129 0.1731447293950154 0.2685519674258498 0.15194383322857 0.102473145230978 0.1768281119101169 0.03048830816603584 0.06097578953203833 0.1707313606642555 0.2987815421377167 0.1890241253584405 0.07317076223139618 0.104652522528415 0.03488403186943519 0.0406985154869773 0.1569768884387837 0.3837190512445902 0.1395362963307675 0.1395326941010311</probabilities>
		</cpt>
		<cpt id="ret_close_t1">
			<state id="baisse" />
			<state id="hausse" />
			<parents>slr mvq200</parents>
			<probabilities>0.4920524745143941 0.507947525485606 0.5066960998591258 0.4933039001408742 0.5031564177022355 0.4968435822977645 0.4795164559425476 0.5204835440574523 0.5100516900586833 0.4899483099413167 0.5150501445816716 0.4849498554183284 0.4839858055243205 0.5160141944756795 0.4390866642604605 0.5609133357395395 0.4853229400300535 0.5146770599699465 0.5093631208403645 0.4906368791596355 0.5442155218790332 0.4557844781209668 0.4957265721946527 0.5042734278053473 0.5058626211989752 0.4941373788010248 0.5371019737060894 0.4628980262939106 0.4999998821391494 0.5000001178608505 0.4593035781762954 0.5406964218237046</probabilities>
		</cpt>
		<cpt id="ret_low_t2">
			<state id="m_inf_5d3" />
			<state id="m_5d3_2d3" />
			<state id="m_2d3_1d3" />
			<state id="m_1d3_5d4" />
			<state id="s5_5d4_3d4" />
			<state id="s5_3d4_1d4" />
			<state id="s5_1d4_sup" />
			<parents>mvq200 slr ret_close_t1 ret_low_t1</parents>
			<probabilities>0.9990127528568193 0.0002794387520126288 0.000346737777405077 0.0001391694350429758 5.327553082656727e-005 3.8083411713461e-005 0.0001305422361801032 0.2906068429797767 0.7091000801082553 0.0001435711109567897 5.762484419748215e-005 2.205939948287551e-005 1.576891266260495e-005 5.405264466832398e-005 0.0845980232571277 0.3283477424246059 0.5869531154673843 3.897479554704208e-005 1.491996371893297e-005 1.066536761328102e-005 3.655872400288226e-005 0.03392892510976678 0.1712451789220548 0.4097795653939702 0.3848346633081176 5.081850409553323e-005 3.632703389540487e-005 0.000124521728099806 0.03957356034576062 0.172579911943131 0.3386410698079531 0.1663978766901461 0.2820175560781267 0.0001784239399614084 0.0006116011949211463 0.08931615105192277 0.1773473052421262 0.3086091831194131 0.1611306620422673 0.1021040239150859 0.1598883294656959 0.001604345163488804 0.03523680068432335 0.06778678974868815 0.3119404131890759 0.1853944145732256 0.1831872015194221 0.03128165857978833 0.1851727217054766 0.9813958760573928 0.005265868037926872 0.006534080783100116 0.002622570687032076 0.001003947780909534 0.0007176607362892205 0.0024599959173495 0.06400893467486561 0.9340856001958942 0.0009334401118714449 0.0003746529552902965 0.0001434211115585049 0.0001025229623270315 0.0003514279881927857 0.03432371002698522 0.107247759227951 0.8582344953328515 7.47881374628919e-005 2.862968956966353e-005 2.046561035045306e-005 7.015197482935836e-005 0.0195168499116997 0.06738528348004623 0.1679099332191542 0.745057529924405 3.130814285580668e-005 2.238027244145178e-005 7.671504939759355e-005 0.02470933140022386 0.06524137752660136 0.1486446490627935 0.1055367839226917 0.6556926196692903 3.957687883947907e-005 0.0001356615395597151 0.02358135991070399 0.04080398765428726 0.1575334893238561 0.1059378159889836 0.04983697923816629 0.6221342064278895 0.0001721614561131065 0.02058865771532502 0.0435561223588357 0.1075629914025109 0.05638551938869877 0.03744272742460399 0.02737718097912797 0.7070868007308976 0.9905934204784569 0.002662517547266395 0.003303748710556238 0.001326018886701611 0.0005076140465272925 0.0003628621700338755 0.001243818160457612 0.2938265639461151 0.7037629078783402 0.001180857972849418 0.0004739585578973631 0.0001814363459475062 0.0001296977234257628 0.0004445775754246083 0.07540703605645667 0.3405924101542667 0.5832350840880987 0.0002950392022911085 0.0001129441253523226 8.07368328325373e-005 0.0002767495407018187 0.06690831493920221 0.1494833119812025 0.436836341272455 0.3452296367288233 0.0003703086077125331 0.0002647109273197945 0.0009073755432846516 0.05814072112913354 0.1618482030853355 0.2647016817619753 0.3559007840458221 0.1522588825070464 0.001614736656650746 0.005534990814036375 0.1292016025091857 0.1374404513007455 0.1437815150266117 0.01311285343516038 0.2272419611267699 0.3369216370147795 0.0122999795867475 0.02713573709711178 0.2061606769511182 0.2156722725399175 0.3530026134860738 0.007529608356821505 0.005382455522169153 0.1851166360467879 0.9069793802869636 0.02632934018963436 0.03267040391550059 0.01311285343516038 0.005019738904547672 0.003588303681446103 0.0122999795867475 0.1358635374363861 0.8483411595185976 0.007737727243144874 0.003105675813590616 0.001188885530024448 0.0008498613982372348 0.002913153060019144 0.02190954959254037 0.1065103371668774 0.8699685980802078 0.0006211351627181231 0.0002377771060048896 0.0001699722796474469 0.0005826306120038288 0.01156585252718006 0.086828684821961 0.1673477734504786 0.7332514207535639 0.0002415917119835777 0.0001726991076631814 0.0005919776271696656 0.03927183417530822 0.06827324586515764 0.1254154116532029 0.133188827178457 0.6325016759447257 0.0003046672937076879 0.001044337889440825 0.002010054599786058 0.01527116125563839 0.09004979796591982 0.06318537877674621 0.07463182284124603 0.753485120162136 0.0013666643985275 0.008686001697119158 0.04111230546870164 0.09355033588449599 0.0807952436984596 0.02427782188811618 0.03627427603667877 0.7153040153264285 0.9476759014114171 0.01481025385666933 0.01837710220246908 0.007375980057277715 0.002823603133808065 0.002018420820813433 0.00691873851754547 0.2487364409069952 0.7425646965464741 0.004261357032456598 0.001710372187194832 0.0006547485527670876 0.0004680396106234047 0.001604345163488804 0.1166370340198667 0.2787458773977439 0.6022617971941501 0.0009078129301264879 0.0003475203856994542 0.0002484210241001148 0.0008515370483132885 0.07457980767526451 0.2150677262657486 0.389449435697914 0.3144143338247049 0.001557850004859622 0.001113611487345342 0.003817235044163017 0.02325920322609581 0.176709151672387 0.1848619478913579 0.302573668702349 0.2921682357344184 0.004613533304716417 0.01581425946867536 0.3876048075275569 0.07898802056890307 0.09801121174650174 0.3726718936388145 0.01505921671364301 0.01076491104433831 0.03689993876024249 0.1628144225826707 0.2369640617067093 0.2940336352395053 0.1180156809164434 0.04517765014092905 0.03229473313301493 0.1106998162807275 0.5814072112913353 0.1184820308533546 0.1470168176197526 0.05900784045822171 0.02258882507046452 0.01614736656650746 0.05534990814036374 0.01480131114387916 0.9306330965187919 0.02673033047631866 0.01072869826513122 0.004107059103720822 0.002935884830274084 0.01006361966188432 0.02193989476571077 0.1365464917303153 0.8357364836837643 0.002226710960687612 0.0008524084932250762 0.0006093345874153759 0.00208867577888165 0.01661163460832387 0.08909948659581013 0.1613433376462786 0.7302573668702349 0.0006453950020132719 0.0004613533304716418 0.001581425946867536 0.007078887938376987 0.05378104616116127 0.2736536363147611 0.04860937743114972 0.6106598978322143 0.001404118831870214 0.004813035490466413 0.09011726760761127 0.009873502571112884 0.09558473480164605 0.1299173200381851 0.0852157354225387 0.5846789472138756 0.004612492345030312 0.02485993589175484 0.06019498921501965 0.1757934900602242 0.02434500782662579 0.02350778908207964 0.05784246819693121 0.6334563197273647 0.9665125769033069 0.009478562468268371 0.01176134540958021 0.004720627236657737 0.001807106005637162 0.001291789325320597 0.004427992651229101 0.2952479828541594 0.6982278702359426 0.003196017774342448 0.001282779140396124 0.0004910614145753156 0.0003510297079675535 0.001203258872616603 0.07817549555832824 0.2325920312438978 0.6868771818095346 0.0009078129301264879 0.0003475203856994542 0.0002484210241001148 0.0008515370483132885 0.0946094186950607 0.141749183220607 0.3703189462554433 0.3890458109299192 0.001026764775930205 0.000733971207568521 0.002515904915471079 0.01480131114387916 0.02154218742788266 0.4812757850217733 0.1925468800833131 0.2768343318309936 0.002935884830274084 0.01006361966188432 0.03256288451653414 0.04739281234134185 0.6588067270479011 0.02360313618328869 0.009035530028185808 0.206458946626603 0.0221399632561455 0.08140721129133535 0.1184820308533546 0.6470168176197526 0.05900784045822171 0.02258882507046452 0.01614736656650746 0.05534990814036374 0.7907036056456679 0.05924101542667732 0.07350840880987632 0.02950392022911086 0.01129441253523226 0.008073683283253733 0.02767495407018188 0.01809049139807452 0.9152182290785235 0.03267040391550059 0.01311285343516038 0.005019738904547672 0.003588303681446103 0.0122999795867475 0.01685238293598073 0.09039078350299579 0.8883193280469494 0.001710372187194832 0.0006547485527670876 0.0004680396106234047 0.001604345163488804 0.03276991549367683 0.04904491002585923 0.2317277823521137 0.6836062981957037 0.000684509850620137 0.000489314138379014 0.001677269943647386 0.02981575442519668 0.08299907850530022 0.2126675291087052 0.02866706874144727 0.6421840423113059 0.000828070080333716 0.002838456827710961 0.006783934274277946 0.05154016923777955 0.1789180681349794 0.004917320038185142 0.001882402089205377 0.7513456138805422 0.004612492345030312 0.01277818046794144 0.04656004463413967 0.09114322676087368 0.05624193055952136 0.03346349066088933 0.02233290915530786 0.7374802177613268 0.9984322367464097 0.0004437529245443994 0.0005506247850927065 0.000221003147783602 8.460234108788211e-005 6.047702833897927e-005 0.0002073030267429354 0.3185536839109464 0.6808741316126852 0.0002802989849756962 0.0001125030323321672 4.306734999135276e-005 3.078620889705904e-005 0.0001055289001722855 0.08926154883003787 0.3049870338330027 0.6055312966464699 8.484232991836335e-005 3.247854071957516e-005 2.321691814019764e-005 7.958290171152229e-005 0.05397975893685258 0.1555970818639625 0.4374479820710972 0.3524451145941308 0.0001272609863124762 9.097107924792935e-005 0.0003118304683964154 0.02845808450766672 0.2268021587066672 0.4380793899373619 0.08050020632784793 0.224278653291328 0.0004249306991186174 0.001456576530009572 0.172093814086089 0.07456546872355696 0.3764677878413168 0.2039338560305481 0.001505921671364301 0.1677431577711005 0.00368999387602425 0.144187628172178 0.2157976041137806 0.01960224234930035 0.07453437872776289 0.1363451766760619 0.135486315542201 0.2740466544187152 0.9813958760573928 0.005265868037926872 0.006534080783100116 0.002622570687032076 0.001003947780909534 0.0007176607362892205 0.0024599959173495 0.07696860112986126 0.9199845891457193 0.001492556524058402 0.0005990643701342305 0.0002293281733042083 0.0001639326554975377 0.0005619280014250126 0.04357794273663951 0.08046907235441092 0.8755506355259389 0.0001550797383921727 5.936616312868468e-005 4.243723144942829e-005 0.0001454662500403778 0.02448333013207228 0.06881164630771285 0.151632002332724 0.7548045872766282 6.444743244069763e-005 4.606951944795282e-005 0.0001579169989739337 0.02573824276006368 0.05122742713962558 0.1356573978517964 0.08460116764302371 0.7023740945228678 9.071554250846888e-005 0.0003109545401144031 0.02643104952982536 0.07098510723877013 0.1302362864768986 0.07792625712515293 0.03337703929941302 0.6606357739230001 0.0004084864069399538 0.02350468329045007 0.05470521795885867 0.0985350521743575 0.06431713587637787 0.03117235179974798 0.03602363300888425 0.6917419258913238 0.9882086538391925 0.003337521995869144 0.004141318806190214 0.001662192688963992 0.0006363049315623808 0.0004548553962396468 0.001559152341982077 0.3247265766366372 0.6708600298654904 0.002162012023819891 0.0008677623596797308 0.0003321886039774193 0.0002374612730368744 0.0008139692373582901 0.118517724184934 0.3114276153032444 0.5684172921670561 0.0006310998979488951 0.0002415917119835777 0.0001726991076631814 0.0005919776271696656 0.09940023262230115 0.1973703880920437 0.2950650586328952 0.4051292851760717 0.0007286717764665974 0.0005208827924679827 0.001785480907753669 0.01480131114387916 0.2033603692460645 0.3903666941126824 0.3743650619014949 0.004107059103720822 0.002935884830274084 0.01006361966188432 0.1628144225826707 0.2369640617067093 0.2940336352395053 0.1180156809164434 0.04517765014092905 0.03229473313301493 0.1106998162807275 0.1628144225826707 0.2369640617067093 0.2940336352395053 0.1180156809164434 0.04517765014092905 0.03229473313301493 0.1106998162807275 0.7907036056456679 0.05924101542667732 0.07350840880987632 0.02950392022911086 0.01129441253523226 0.008073683283253733 0.02767495407018188 0.006262093176256566 0.9706524639117965 0.0113089859707502 0.004539064650632439 0.001737601928497271 0.001242105120500574 0.004257685241566442 0.09808721308534413 0.04223358114279605 0.8572099486712864 0.0009517393622293826 0.0003643358882332988 0.0002604413962339914 0.0008927404538768347 0.02276646760613337 0.06565225328112326 0.1609898277393632 0.7486106913780678 0.0004755542120097794 0.0003399445592948939 0.001165261224007658 0.02373090658331981 0.08646865432054508 0.2508986456171327 0.1044492996105396 0.531534237757978 0.0006590761863880596 0.002259179924096479 0.03633795070570846 0.03865512692833466 0.1966885511012345 0.03493799002863886 0.001411801566904032 0.6885092104104067 0.003459369258772734 0.01931084305877384 0.04675860769380991 0.1365538717432098 0.09926799715103966 0.01826051473340115 0.02707406011725906 0.6527741055025065 0.9601340201229845 0.01128400293841473 0.01400160167807168 0.00561979432935445 0.002151316673377574 0.001537844434905473 0.005271419822891786 0.2537003277859698 0.732658274129698 0.006682582619079664 0.002682174566282805 0.001026764775930205 0.000733971207568521 0.002515904915471079 0.05967574382231454 0.2686219634284285 0.6659251629290472 0.002226710960687612 0.0008524084932250762 0.0006093345874153759 0.00208867577888165 0.05814072112913354 0.1618482030853355 0.3647016817619753 0.4059007840458222 0.002258882507046452 0.001614736656650746 0.005534990814036375 0.1628144225826707 0.2369640617067093 0.2940336352395053 0.1180156809164434 0.04517765014092905 0.03229473313301493 0.1106998162807275 0.05427147419422357 0.07898802056890307 0.4313445450798351 0.03933856030548114 0.01505921671364301 0.3440982443776717 0.03689993876024249 0.1628144225826707 0.2369640617067093 0.2940336352395053 0.1180156809164434 0.04517765014092905 0.03229473313301493 0.1106998162807275 0.5814072112913353 0.1184820308533546 0.1470168176197526 0.05900784045822171 0.02258882507046452 0.01614736656650746 0.05534990814036374 0.04070360564566768 0.8092410154266775 0.07350840880987632 0.02950392022911086 0.01129441253523226 0.008073683283253733 0.02767495407018188 0.004174728784171043 0.1086401041463259 0.879334195775372 0.003026043100421626 0.001158401285664847 0.000828070080333716 0.002838456827710961 0.005814800806523954 0.1513201450609539 0.08192977268712519 0.7542148457470158 0.00161348750503318 0.001153383326179104 0.003953564867168839 0.009045245699037261 0.06872022565037274 0.1274463130688614 0.06211198227313575 0.724732091674496 0.001794151840723051 0.006149989793373749 0.01252418635251313 0.01822800474666994 0.09954104886457733 0.08600120622434181 0.1573213577031484 0.6178688256256165 0.008515370483132884 0.004788659487725609 0.03638129593255027 0.06747157750704427 0.06229457885048363 0.08956404853355673 0.03036160979802985 0.7091382298906097 0.9619461101173943 0.01077109371394133 0.01336516523815933 0.005364349132565611 0.002053529551860411 0.001467942415137042 0.00503180983094216 0.2746706600698019 0.7091071368028841 0.007946855006473115 0.003189612997741714 0.00122101757137646 0.0008728306252166196 0.002991886926506149 0.04583789018235754 0.4237241168363291 0.5260004874672393 0.001710372187194832 0.0006547485527670876 0.0004680396106234047 0.001604345163488804 0.006783934274277946 0.1765401692377795 0.345584734801646 0.4632506533715184 0.001882402089205377 0.001345613880542288 0.004612492345030312 0.04070360564566768 0.05924101542667732 0.5735084088098764 0.2795039202291109 0.01129441253523226 0.008073683283253733 0.02767495407018188 0.08140721129133535 0.6184820308533546 0.1470168176197526 0.05900784045822171 0.02258882507046452 0.01614736656650746 0.05534990814036374 0.1628144225826707 0.2369640617067093 0.2940336352395053 0.1180156809164434 0.04517765014092905 0.03229473313301493 0.1106998162807275 0.7209381408608903 0.07898802056890308 0.09801121174650175 0.03933856030548114 0.01505921671364301 0.01076491104433831 0.0368999387602425 0.1292016025091857 0.8041071179674123 0.03267040391550059 0.01311285343516038 0.005019738904547672 0.003588303681446103 0.0122999795867475 0.0323004006272964 0.08991566838074191 0.8692787120899862 0.003278213358790095 0.001254934726136918 0.0008970759203615256 0.003074994896686875 0.005087950705708459 0.1011551269283347 0.07168855110123454 0.8161879900286388 0.001411801566904032 0.001009210410406716 0.003459369258772734 0.01085429483884472 0.01579760411378062 0.2862689090159671 0.1412010453944296 0.536345176676062 0.002152982208867662 0.007379987752048501 0.01809049139807452 0.1374404513007455 0.1437815150266117 0.01311285343516038 0.005019738904547672 0.6702549703481129 0.0122999795867475 0.03420042419360796 0.006969531226667918 0.03805981280116192 0.06229457885048363 0.001328754415909678 0.03036160979802985 0.826785288714139 0.9978643225065884 0.0006045001574150745 0.0007500858041824111 0.0003010604105011312 0.00011524910750237 8.238452329850745e-005 0.0002823974905120599 0.3251235083299334 0.674032298258378 0.000413549416651906 0.0001659854865210175 6.354099879174268e-005 4.542156558792536e-005 0.0001556959441360443 0.1172637788575127 0.2917023213719884 0.5906525948134987 0.0001469684693853592 5.626108361261399e-005 4.021760041471348e-005 0.0001378578035874564 0.03871791579774417 0.1526322381713876 0.4610488304607541 0.3465838685454943 0.0002442035142752921 0.0001745661250433239 0.0005983773853012297 0.05545678006622232 0.1342811297873515 0.4177957342369104 0.1568721969465754 0.2319276320548956 0.000828070080333716 0.002838456827710961 0.05814072112913354 0.01184820308533546 0.3647016817619753 0.1559007840458222 0.05225888250704646 0.3516147366566508 0.005534990814036375 0.01809049139807452 0.02632934018963436 0.2548926261377228 0.3464461867684937 0.00501973890454767 0.1146994147925572 0.2345222018089697 0.9835845965212288 0.004646354151111945 0.005765365396853043 0.002314032959145949 0.0008858362772731184 0.0006332300614316651 0.002170584632955441 0.06960831796289499 0.9262805757651144 0.002013929008489761 0.0008083265816194753 0.0003094359598693769 0.0002211968022809241 0.00075821791973101 0.03096324602027332 0.1096493564400512 0.8588008307188497 0.0002260836799165583 8.654722249220124e-005 6.186730485251902e-005 0.0002120686135646121 0.01693336742927345 0.07857438312460213 0.1401750204142778 0.7638723774962562 0.0001068029554159079 7.634688683927876e-005 0.0002617016933350531 0.03460296822503706 0.08810127566041888 0.1656716600736208 0.0730338921783403 0.6378994089378789 0.0001560132035411349 0.0005347817211629347 0.01940376946369737 0.04439855252580804 0.1490431511364387 0.08661359313445671 0.02481704079841061 0.6750447529640062 0.0006791399771823773 0.01477873293964947 0.0487692968737205 0.09563553812135404 0.06631938013051039 0.03233093169377569 0.02747144311795648 0.7146946771230334 0.9832562884516535 0.004739281234134185 0.005880672704790105 0.002360313618328868 0.0009035530028185808 0.0006458946626602985 0.00221399632561455 0.3424485101382711 0.6509556490297441 0.003231138848785772 0.001296875614466411 0.0004964576938563631 0.0003548871772858783 0.001216481497590412 0.07558161502391363 0.3077496672380251 0.6138336447707362 0.001092737786263365 0.0004183115753789726 0.0002990253067871753 0.001024998298895625 0.05537211536107955 0.1541411457955576 0.2997158873923574 0.4818102705198306 0.002151316673377573 0.001537844434905473 0.005271419822891785 0.02713573709711178 0.03949401028445153 0.2156722725399175 0.3530026134860739 0.3408629416901548 0.005382455522169154 0.01844996938012125 0.08140721129133535 0.1184820308533546 0.1470168176197526 0.5590078404582217 0.02258882507046452 0.01614736656650746 0.05534990814036374 0.1628144225826707 0.2369640617067093 0.2940336352395053 0.1180156809164434 0.04517765014092905 0.03229473313301493 0.1106998162807275 0.8953518028228339 0.02962050771333865 0.03675420440493815 0.01475196011455543 0.00564720626761613 0.004036841641626866 0.01383747703509094 0.2108542948388447 0.7491309374471141 0.01960224234930035 0.007867712061096229 0.003011843342728603 0.002152982208867662 0.007379987752048501 0.06373844966151446 0.1140365933544038 0.8184448596943148 0.00145698371501782 0.0005577487671719634 0.0003987004090495669 0.0013666643985275 0.01816897535285423 0.06620256346416734 0.1764692755506173 0.7362189950143194 0.0007059007834520162 0.0005046052052033582 0.001729684629386367 0.005087950705708459 0.1011551269283347 0.1654385511012345 0.1286879900286388 0.595161801566904 0.001009210410406716 0.003459369258772734 0.07267590141141693 0.07731025385666934 0.08087710220246909 0.007375980057277715 0.002823603133808065 0.7520184208208136 0.00691873851754547 0.01435573361213173 0.07699955631736678 0.07770411895357414 0.08787673680143757 0.01290342777951764 0.02509005843374092 0.7050703681022312 0.9302345352152226 0.01974700514222577 0.02450280293662544 0.009834640076370285 0.003764804178410754 0.002691227761084577 0.009224984690060625 0.3278327233091184 0.6528052923131197 0.009484955975467911 0.00380695744891753 0.001457343552933195 0.001041765584935966 0.003570961815507339 0.06553983098735366 0.3102110321729306 0.6149707162193789 0.00357623275504374 0.001369019701240274 0.000978628276758028 0.003354539887294773 0.02713573709711178 0.03949401028445153 0.3823389392065841 0.5196692801527405 0.007529608356821505 0.005382455522169153 0.01844996938012124 0.08140721129133535 0.1184820308533546 0.6470168176197526 0.05900784045822171 0.02258882507046452 0.01614736656650746 0.05534990814036374 0.08140721129133535 0.1184820308533546 0.6470168176197526 0.05900784045822171 0.02258882507046452 0.01614736656650746 0.05534990814036374 0.1628144225826707 0.2369640617067093 0.2940336352395053 0.1180156809164434 0.04517765014092905 0.03229473313301493 0.1106998162807275 0.5814072112913353 0.1184820308533546 0.1470168176197526 0.05900784045822171 0.02258882507046452 0.01614736656650746 0.05534990814036374 0.01809049139807452 0.9152182290785235 0.03267040391550059 0.01311285343516038 0.005019738904547672 0.003588303681446103 0.0122999795867475 0.0135678685485559 0.1030803384755591 0.8578361362699589 0.009834640076370287 0.003764804178410754 0.002691227761084578 0.009224984690060627 0.007753067742031938 0.1541411457955576 0.06162064929711929 0.7675245562341163 0.002151316673377573 0.001537844434905473 0.005271419822891785 0.01809049139807452 0.02632934018963436 0.2548926261377228 0.1242239645462715 0.5605752944601033 0.003588303681446103 0.0122999795867475 0.03256288451653414 0.2473928123413419 0.258806727047901 0.02360313618328869 0.009035530028185808 0.406458946626603 0.0221399632561455 0.01017590141141692 0.01481025385666933 0.08087710220246908 0.1323759800572777 0.002823603133808065 0.002018420820813433 0.7569187385175454 0.8953518028228339 0.02962050771333865 0.03675420440493815 0.01475196011455543 0.00564720626761613 0.004036841641626866 0.01383747703509094 0.1613379507057085 0.8199051269283348 0.00918855110123454 0.003687990028638858 0.001411801566904033 0.001009210410406717 0.003459369258772735 0.1040703605645668 0.3809241015426678 0.5073508408809876 0.002950392022911086 0.001129441253523226 0.0008073683283253731 0.002767495407018187 0.1938024037637784 0.2061606769511182 0.2156722725399175 0.3530026134860738 0.007529608356821505 0.005382455522169153 0.01844996938012124 0.1628144225826707 0.2369640617067093 0.2940336352395053 0.1180156809164434 0.04517765014092905 0.03229473313301493 0.1106998162807275 0.1628144225826707 0.2369640617067093 0.2940336352395053 0.1180156809164434 0.04517765014092905 0.03229473313301493 0.1106998162807275 0.1628144225826707 0.2369640617067093 0.2940336352395053 0.1180156809164434 0.04517765014092905 0.03229473313301493 0.1106998162807275 0.5814072112913353 0.1184820308533546 0.1470168176197526 0.05900784045822171 0.02258882507046452 0.01614736656650746 0.05534990814036374 0.05427147419422357 0.7456546872355697 0.09801121174650175 0.03933856030548114 0.01505921671364301 0.01076491104433831 0.0368999387602425 0.08651257690330683 0.1294785624682684 0.7717613454095802 0.004720627236657737 0.001807106005637162 0.001291789325320597 0.0044279926512291 0.009045245699037261 0.1242757812059283 0.1274463130688614 0.7287786489398024 0.002509869452273835 0.001794151840723051 0.006149989793373749 0.02325920322609581 0.03385200881524417 0.04200480503421503 0.1597165258452062 0.720739664305847 0.004613533304716417 0.01581425946867536 0.1162814422582671 0.1236964061706709 0.02940336352395052 0.2118015680916444 0.1045177650140929 0.4032294733133015 0.01106998162807275 0.006783934274277946 0.05154016923777955 0.05391806813497938 0.08825065337151847 0.001882402089205377 0.04301228054720896 0.7546124923450304 0.997796880059428 0.0006235896360702873 0.0007737727243144872 0.0003105675813590616 0.0001188885530024448 8.498613982372347e-005 0.0002913153060019144 0.3044171615044596 0.6942975675839543 0.0006296223452666064 0.0002527102375084441 9.674015019470886e-005 6.915360413921825e-005 0.0002370445744769325 0.1072595690200895 0.3359265493956116 0.5561719782709423 0.0002474123289652902 9.471205480278625e-005 6.770384304615288e-005 0.0002320750865424057 0.04677319575935585 0.1599658883337833 0.3740902655644888 0.4170563559653533 0.0005076140465272925 0.0003628621700338755 0.001243818160457612 0.01480131114387916 0.02154218742788266 0.4812757850217733 0.1925468800833131 0.2768343318309936 0.002935884830274084 0.01006361966188432 0.02325920322609581 0.3195662945295298 0.3277190907485008 0.01685938298806335 0.1493110928772756 0.1474706761618593 0.01581425946867536 0.04070360564566768 0.05924101542667731 0.0735084088098763 0.02950392022911085 0.01129441253523226 0.008073683283253731 0.7776749540701818 0.9897904197875935 0.002889805630569625 0.003585776039506161 0.001439215620932237 0.000550946952938159 0.0003938382089392064 0.001349997759521067 0.09359761989248561 0.9026973090228808 0.001815022439750032 0.0007284918575089099 0.0002788743835859817 0.0001993502045247834 0.0006833321992637499 0.04135617933152451 0.09695653990772701 0.8609494786391314 0.0002843751347384179 0.0001088618075685037 7.781863405545765e-005 0.0002667465452547651 0.04328403709104153 0.05422407139397405 0.1469538563531655 0.7548683832061083 0.0001607745556616692 0.0001149278759182026 0.0003939495241307028 0.01848559335540744 0.07040140223680949 0.1478122532926454 0.0950257750505679 0.667052800428555 0.0002760233601112387 0.0009461522759036539 0.05759639647273524 0.06763517814679167 0.1429348937872851 0.0571777166440789 0.009768015421877841 0.6638532218049814 0.00103457772224979 0.02077052015924344 0.04640448870663285 0.09744028914819214 0.04864635033312072 0.0357383655219871 0.01534935046598732 0.7356506356648365 0.9853125337295204 0.004157264240468582 0.005158484828763249 0.002070450542393744 0.0007925903533496322 0.0005665742654914898 0.001942102040012763 0.2660142881154854 0.7234555098545036 0.005158484828763249 0.002070450542393744 0.0007925903533496322 0.0005665742654914898 0.001942102040012763 0.06325628845165342 0.2847392812341342 0.6458806727047902 0.002360313618328868 0.0009035530028185808 0.0006458946626602985 0.00221399632561455 0.01809049139807452 0.02632934018963436 0.4771148483599451 0.4575572978796049 0.005019738904547672 0.003588303681446103 0.0122999795867475 0.2907036056456677 0.05924101542667732 0.3235084088098764 0.02950392022911086 0.2612944125352323 0.008073683283253733 0.02767495407018188 0.08140721129133535 0.1184820308533546 0.1470168176197526 0.05900784045822171 0.02258882507046452 0.5161473665665075 0.05534990814036374 0.1628144225826707 0.2369640617067093 0.2940336352395053 0.1180156809164434 0.04517765014092905 0.03229473313301493 0.1106998162807275 0.9238922202347883 0.02154218742788266 0.02673033047631866 0.01072869826513122 0.004107059103720822 0.002935884830274084 0.01006361966188432 0.1201563568101484 0.8464980034281505 0.01633520195775029 0.006556426717580189 0.002509869452273835 0.001794151840723051 0.006149989793373749 0.03433038766004239 0.09899942955090014 0.8618100577022144 0.001873264776451483 0.0007171055577925244 0.0005126148116351575 0.001757139940963928 0.02422530047047231 0.1507700846188898 0.04779236740082302 0.7732919933524258 0.0009412010446026883 0.0006728069402711442 0.002306246172515156 0.1138323380306669 0.06510337166877417 0.1207386123810266 0.006211351627181232 0.6865882973758383 0.00169972279647447 0.005826306120038288 0.07267590141141693 0.07731025385666934 0.3308771022024691 0.007375980057277715 0.06532360313380808 0.4395184208208135 0.00691873851754547 0.003071970237408881 0.06107479361710771 0.08101950255168877 0.07769840907389515 0.0008524084932250762 0.01947725911571726 0.7568056569109571 0.9507537895636867 0.01393906245333584 0.01729609619055913 0.00694209887743785 0.002657508831819356 0.001899690184294996 0.006511753898866325 0.4296218117148775 0.53878758219509 0.01547545448628975 0.006211351627181234 0.002377771060048897 0.00169972279647447 0.00582630612003829 0.1581407211291335 0.1618482030853355 0.6647016817619753 0.005900784045822172 0.002258882507046452 0.001614736656650746 0.005534990814036375 0.03256288451653414 0.04739281234134184 0.6588067270479009 0.2236031361832886 0.009035530028185806 0.006458946626602983 0.02213996325614549 0.1628144225826707 0.2369640617067093 0.2940336352395053 0.1180156809164434 0.04517765014092905 0.03229473313301493 0.1106998162807275 0.08140721129133535 0.1184820308533546 0.1470168176197526 0.05900784045822171 0.02258882507046452 0.5161473665665075 0.05534990814036374 0.1628144225826707 0.2369640617067093 0.2940336352395053 0.1180156809164434 0.04517765014092905 0.03229473313301493 0.1106998162807275 0.7907036056456679 0.05924101542667732 0.07350840880987632 0.02950392022911086 0.01129441253523226 0.008073683283253733 0.02767495407018188 0.05427147419422357 0.7456546872355697 0.09801121174650175 0.03933856030548114 0.01505921671364301 0.01076491104433831 0.0368999387602425 0.06120075908329845 0.170366529563511 0.7523175597494476 0.006211351627181232 0.002377771060048897 0.00169972279647447 0.005826306120038288 0.01162960161304791 0.01692600440762209 0.09243097394567895 0.8655725486368889 0.00322697501006636 0.002306766652358209 0.007907129734337678 0.03256288451653414 0.2473928123413419 0.258806727047901 0.02360313618328869 0.4090355300281858 0.006458946626602985 0.0221399632561455 0.04070360564566768 0.05924101542667731 0.3235084088098763 0.02950392022911085 0.01129441253523226 0.5080736832832538 0.02767495407018187 0.009577318975451218 0.01393906245333584 0.2525902138376179 0.06576562828920256 0.002657508831819355 0.001899690184294996 0.6535705774282781 0.9476759014114171 0.01481025385666933 0.01837710220246908 0.007375980057277715 0.002823603133808065 0.002018420820813433 0.00691873851754547 0.3986719436636669 0.5798915736323825 0.01050120125855376 0.004214845747015837 0.00161348750503318 0.001153383326179105 0.003953564867168839 0.04306720083639521 0.3421097800632115 0.6034827272310928 0.004370951145053459 0.00167324630151589 0.001196101227148701 0.0040999931955825 0.01628144225826707 0.323696406170671 0.3294033635239506 0.3118015680916444 0.004517765014092905 0.003229473313301493 0.01106998162807275 0.05427147419422357 0.07898802056890308 0.09801121174650175 0.03933856030548114 0.6817258833803097 0.01076491104433831 0.0368999387602425 0.1628144225826707 0.2369640617067093 0.2940336352395053 0.1180156809164434 0.04517765014092905 0.03229473313301493 0.1106998162807275 0.1628144225826707 0.2369640617067093 0.2940336352395053 0.1180156809164434 0.04517765014092905 0.03229473313301493 0.1106998162807275 0.1628144225826707 0.2369640617067093 0.2940336352395053 0.1180156809164434 0.04517765014092905 0.03229473313301493 0.1106998162807275 0.02325920322609581 0.8909948659581013 0.04200480503421503 0.01685938298806335 0.006453950020132719 0.004613533304716417 0.01581425946867536 0.08651257690330683 0.04947856246826837 0.8517613454095802 0.004720627236657737 0.001807106005637162 0.001291789325320597 0.0044279926512291 0.007400655571939578 0.05622563916848679 0.1951833470563412 0.7326370764052929 0.002053529551860411 0.001467942415137042 0.005031809830942159 0.01162960161304791 0.08835457583619354 0.02100240251710752 0.008429691494031675 0.8603698321529236 0.002306766652358209 0.007907129734337678 0.02325920322609581 0.176709151672387 0.04200480503421503 0.1597165258452062 0.006453950020132719 0.5760421047332879 0.01581425946867536 0.006783934274277946 0.05154016923777955 0.09558473480164605 0.04658398670485181 0.001882402089205377 0.001345613880542288 0.796279159011697</probabilities>
		</cpt>
		<cpt id="ret_high_t2">
			<state id="v_inf_1d4" />
			<state id="v_1d4_3d4" />
			<state id="v_3d4_5d4" />
			<state id="v_5d4_1d3" />
			<state id="v_1d3_2d3" />
			<state id="v_2d3_5d3" />
			<state id="v_2d3_sup" />
			<parents>mvq200 slr ret_high_t1 ret_close_t1</parents>
			<probabilities>0.7163980350841184 0.01439684934501947 0.03530530454380234 0.06876564191734666 0.09856120002620782 0.0516465776526095 0.01492639143089567 0.1700379880886454 0.02807815247699835 0.223545166315285 0.1144775747212426 0.2305784682347682 0.1457424517700246 0.08754019839303584 0.4393162394017002 0.2212878447498661 0.05668546481535206 0.08940170272721222 0.125730402841255 0.05016591468905812 0.01741243077555624 0.1376502978168005 0.1188273472741007 0.05165467775169932 0.2223930964400802 0.3101834721432484 0.08892759769018452 0.07036351088388627 0.0001507671691816561 1.3432905803653e-005 0.6708666161333543 0.1020139039626891 0.1357774221819275 0.06987171212884583 0.02130614551819788 0.0006705390673548793 5.974303409911968e-005 0.2930808065599462 0.1774651529832305 0.3718277616378544 0.1450095484183474 0.01188644829916735 7.566556807433489e-005 6.741576790486697e-006 2.969201206375331e-005 0.7307488732481077 0.1828558758456681 0.07122613981528733 0.01505701193400829 0.0001416191029069232 1.261784034065421e-005 5.557291406098051e-005 0.3828718701166449 0.4110861433564196 0.161314735430246 0.04451744123938073 7.418555696285646e-005 6.609712207787691e-006 2.911123921165055e-005 7.407866134763621e-005 0.8852694528462419 0.08328039624921814 0.03126616573481008 3.66337371540094e-005 3.263956888602675e-006 1.43754866737882e-005 3.658095078923417e-005 0.6083008828422733 0.3176114483138306 0.07399681471239036 0.0004273506027860322 3.807566609838261e-005 0.0001676971385572546 0.0004267348238194818 0.001059242452294564 0.9234039727595806 0.07447692655686371 5.652891066196235e-005 5.03655760220804e-006 2.218257445284597e-005 5.64474569002016e-005 0.0001401140458554523 0.7215867388280023 0.2781329516265251 0.004045585706374439 0.0003604496390646887 0.001587532911675343 0.004039756332157761 0.0100274952150552 0.008224275457362901 0.9717149047383097 0.0001658026928841983 1.477252619117577e-005 6.506282424898948e-005 0.0001655637841048263 0.0004109629186498033 0.0003370604695640533 0.998840774784357 0.7186420048643691 0.006225428759046255 0.04658707736021753 0.08706251606800228 0.08452267757415373 0.04101154261213898 0.01594875276207211 0.02427351423824663 0.002162697834388133 0.009525197470052061 0.2242385379929466 0.06016497129033121 0.6493456527441774 0.03028942842985802 0.4079271161669367 0.2418770713095818 0.03349039546538748 0.08924387571389818 0.1901189544665017 0.02468932157935041 0.01265326529834385 0.1245963967990259 0.001201498796882296 0.005291776372251145 0.124576965551637 0.3667583173835173 0.3607475848578763 0.01682746023881001 0.001225935062537709 0.000109227163352936 0.6671477372459622 0.1729413403026741 0.0737457056207238 0.06309826529010998 0.0217317893146393 0.004185088661766661 0.0003728789369634711 0.3809526202534572 0.1076273341367149 0.2862353398776433 0.1464389056455478 0.07418783248790656 0.0006818402875911976 6.074993916820596e-005 0.0002675617266868556 0.7197819814042963 0.2207911508789419 0.04632993406584768 0.01208678169746792 0.001028538738908756 9.163973874525985e-005 0.0004036100622903416 0.340010107542074 0.4262781767495903 0.1800570191840753 0.05213090798431601 0.000713926889360195 6.360875983494508e-005 0.0002801528667662371 0.0007128981762631343 0.9017695579791275 0.07792193096306405 0.01853792436558406 0.0003262569118043903 2.906851927941039e-005 0.0001280268477157535 0.0003257868009804646 0.5922065184313218 0.3205557211390346 0.08642862134986368 0.003915082941652682 0.0003488222313529246 0.001536322172589042 0.003909441611765575 0.009704027627472774 0.9434428472168027 0.03714345619836419 0.0005299893938481797 4.722047673336533e-005 0.0002079737438875996 0.0005292257203700124 0.001313645661360943 0.6866669356494361 0.3107050093543637 0.04045585706374438 0.003604496390646887 0.01587532911675343 0.04039756332157761 0.100274952150552 0.08224275457362901 0.7171490473830967 0.001238444603992175 0.0001103417262442925 0.0004859794627577582 0.001236660101680947 0.003069641392363837 0.002517635344090684 0.9913412973688702 0.6546670056553588 0.01990904444724694 0.04007550482525011 0.06060586821747262 0.1316913352123927 0.07174978478931572 0.02130145685296327 0.5606837855956166 0.005406744585970331 0.02381299367513015 0.06059634498236641 0.150412428225828 0.1233641318604435 0.07572357107464504 0.5050569821329681 0.2087838953821642 0.04365108280626085 0.04671636208186387 0.137534369018819 0.0519470109883703 0.006310297589553754 0.04045585706374438 0.3369378297239802 0.01587532911675343 0.0403975633215776 0.4336082854838852 0.08224275457362899 0.05048238071643002 0.004495095229304932 0.0004004995989607652 0.5573194810129726 0.2267108403690642 0.1592898094982095 0.009138083841514334 0.0426461904499737 0.01103341556283938 0.0009830444701764238 0.3679659988500236 0.192835699087703 0.3909840778592414 0.02242984215644427 0.01376792201357182 0.00346764489117809 0.0003089568334840189 0.001360742495721723 0.8320340768561352 0.122880710184333 0.03562080753488248 0.004327061204265431 0.002960184663200809 0.0002637436383400161 0.001161609447567324 0.3931998217064569 0.3731908501573575 0.1767494698468509 0.05247432054022659 0.002167278056986306 0.0001930980209275118 0.0008504640598260768 0.002164155177941658 0.8268004438652081 0.1472630047093016 0.02056155610980875 0.001055370184271593 9.403034062557098e-005 0.0004141390204370461 0.001053849477954199 0.5852245639691448 0.3064932892497469 0.1056647577578199 0.01213675711912331 0.001081348917194066 0.004762598735026029 0.01211926899647328 0.03008248564516559 0.8246728263720886 0.115144714214929 0.001640102313395043 0.0001461282320532522 0.0006435944236521662 0.001637739053577471 0.004065200762860217 0.7195503819421742 0.2723168532722877 0.06068378559561658 0.005406744585970331 0.02381299367513015 0.06059634498236641 0.150412428225828 0.1233641318604435 0.575723571074645 0.005056982132968048 0.0004505620488308609 0.001984416139594179 0.005049695415197201 0.012534369018819 0.01028034432170363 0.9646436309228871 0.6967075440973152 9.4030340625571e-005 0.06997935641174141 0.07061906686925856 0.1069636944039275 0.0369280718584425 0.01870823601868948 0.2242735142382467 0.002162697834388133 0.009525197470052061 0.02423853799294657 0.2601649712903312 0.2493456527441774 0.230289428429858 0.346324787748321 0.2003089568334841 0.0299321710671503 0.2034626482847067 0.1228807101843331 0.06419223610631107 0.03289848977569401 0.3030525101701762 0.001544784167420095 0.006803712478608615 0.303027527137819 0.3286892652073795 0.03524689481726958 0.02163530602132716 0.003111989004903414 0.0002772689531266836 0.6166057945474426 0.1313126330760188 0.1615596117038886 0.03196739137745864 0.05516531133716129 0.01213675711912332 0.001081348917194066 0.204762598735026 0.1121192689964733 0.4300824856451656 0.2246728263720887 0.01514471421492901 0.00202279285318722 0.0001802248195323444 0.0007937664558376719 0.7853532114994123 0.1550137476075276 0.05411213772868146 0.002524119035821502 0.004667983507355122 0.0004159034296900255 0.001831768744240781 0.427738180383259 0.3192624944789099 0.2017972409123418 0.04428642854420346 0.002697057137582959 0.0002402997593764592 0.001058355274450229 0.002693170888105174 0.8955738856989257 0.07214951697157528 0.02558771426998422 0.00101139642659361 9.011240976617219e-005 0.0003968832279188358 0.00100993908303944 0.6275068738037638 0.2770560688643408 0.09292872618457743 0.009335967014710242 0.0008318068593800509 0.003663537488481561 0.009322514612671754 0.02314037357320431 0.8651329433631451 0.08857285708840691 0.001333709573530035 0.0001188295513400073 0.0005233624983545089 0.001331787801810251 0.003305767653314902 0.7609530578430866 0.2324334850785637 0.06068378559561658 0.005406744585970331 0.02381299367513015 0.06059634498236641 0.150412428225828 0.1233641318604435 0.575723571074645 0.002822501655610073 0.0002514764923707131 0.001107581101168844 0.002818434650342624 0.006995926894224559 0.005737866598160163 0.980266212608123 0.7291853836465629 0.008716880836966204 0.03160786288068582 0.06215581359082125 0.1091412675260627 0.04488218527064297 0.01431060624825821 0.1325854731994521 0.0006758430732462914 0.002976624209391269 0.1325745431227958 0.3938015535282285 0.2654205164825554 0.07196544638433063 0.4332886849671315 0.2313836324222834 0.04122248502742634 0.1123925100371818 0.1130627793151181 0.05689077710343615 0.01175913112742272 0.1076333645238356 0.06933839617834275 0.10509055128794 0.2110756099987839 0.1827870640155743 0.2843699401283064 0.03970507386721689 0.0003064837656344272 2.7306790838234e-005 0.6617364292609856 0.1063666482069816 0.1598505678193224 0.05112810167606285 0.02058446248017498 0.001733822445589045 0.0001544784167420095 0.2149660855335751 0.2303027527137819 0.3757260693778808 0.1463818323388698 0.03073495917356129 0.0001542154653001692 1.374013871911139e-005 6.051586702701437e-005 0.7345885548792436 0.1617545423843096 0.07655238661209771 0.02687604465330279 0.0003612130094977178 3.218300348791865e-005 0.0001417440099710128 0.3604797401487047 0.4116095977870586 0.1912105007848836 0.03616502125639671 0.000145176520563676 1.29347956602161e-005 5.696888439026352e-005 0.0001449673324936996 0.8616038574837938 0.10077359840158 0.03726249658151829 8.650575280914694e-005 7.707404969309097e-006 3.394582134729886e-005 8.638110475034414e-005 0.5975059336111559 0.3223426430960235 0.07993688320894461 0.0005698008037147097 5.076755479784349e-005 0.0002235961847430061 0.0005689797650926424 0.001412323269726085 0.9072616350409431 0.08991289738098258 0.0001129000662244029 1.005905969482852e-005 4.430324404675377e-005 0.000112737386013705 0.0002798370757689824 0.7016248635011357 0.2978152996671156 0.003915082941652682 0.0003488222313529246 0.001536322172589042 0.003909441611765575 0.009704027627472774 0.007958976249060872 0.9726273271661061 0.0002822501655610073 2.514764923707131e-005 0.0001107581101168844 0.0002818434650342624 0.0006995926894224558 0.0005737866598160163 0.9980266212608122 0.7700794935048337 7.561880539818645e-005 0.0283050768346172 0.04979855027947366 0.08601975424092068 0.05766942841762859 0.008052077917127903 0.5606837855956166 0.005406744585970331 0.02381299367513015 0.06059634498236641 0.150412428225828 0.1233641318604435 0.07572357107464504 0.4314611326474103 0.2621622259326652 0.04875299969881572 0.09812363547535079 0.1262101156298013 0.02968400627906874 0.003605884336887859 0.2242735142382467 0.002162697834388133 0.009525197470052061 0.2242385379929466 0.2601649712903312 0.2493456527441774 0.03028942842985802 0.002206683112567876 0.0001966088940352848 0.7099568361336411 0.05674895799935879 0.1691059064809392 0.04084960479492522 0.02093540258453255 0.01348528568791479 0.001201498796882296 0.3386251097055845 0.124576965551637 0.3667583173835173 0.1385253626356541 0.01682746023881001 0.001251212074136424 0.0001114792698138213 0.0004909895603119618 0.7228988937109766 0.1989775758397078 0.05408998210021533 0.02217986744483804 0.002582288748749642 0.0002300742377008652 0.001013318879792772 0.4706636742545688 0.3893792522649288 0.1329091119940614 0.003222279620197661 0.001134276366273207 0.0001010606464667351 0.0004451026855164514 0.001132641962287223 0.8813161201537537 0.08641802115626997 0.02945277702943262 0.000642156461329276 5.721422842296647e-005 0.0002519893510595783 0.0006412311638345652 0.5783112426267283 0.3346387738821211 0.08545739228650417 0.006068378559561658 0.0005406744585970332 0.002381299367513015 0.006059634498236642 0.0150412428225828 0.9623364131860443 0.007572357107464504 0.001003037778439944 8.936767910694762e-005 0.0003936032012418207 0.001001592479047379 0.002486155838443438 0.7541051922621561 0.2409210507615644 0.02427351423824663 0.002162697834388133 0.009525197470052061 0.02423853799294657 0.06016497129033121 0.0493456527441774 0.830289428429858 0.001758950307119321 0.0001567172343759516 0.0006902317007284102 0.001756415796590331 0.00435978052828487 0.00357577193798387 0.9877021324949173 0.7004969202602613 0.0002514764923707131 0.02436339505465722 0.07258587651080775 0.1232749966616664 0.05224949450513691 0.02677784051509977 0.1213675711912332 0.01081348917194066 0.0476259873502603 0.1211926899647328 0.300824856451656 0.246728263720887 0.1514471421492901 0.3434472975992693 0.08423445743099504 0.08730216561252167 0.2600993908303944 0.1917354047043046 0.02056068864340725 0.0126205951791075 0.06068378559561658 0.005406744585970331 0.02381299367513015 0.06059634498236641 0.150412428225828 0.6233641318604435 0.07572357107464504 0.006068378559561658 0.0005406744585970332 0.6023812993675131 0.1060596344982366 0.2150412428225828 0.06233641318604435 0.007572357107464504 0.04045585706374438 0.003604496390646886 0.3492086624500867 0.0403975633215776 0.4336082854838852 0.08224275457362899 0.05048238071643002 0.004334556113972612 0.0003861960418550236 0.001700928119652154 0.7543283103558833 0.1178866020161306 0.08024029513288881 0.0411231122196175 0.005779408151963483 0.0005149280558066981 0.002267904159536205 0.2914853661887968 0.3952773741167455 0.2974632506533755 0.007211768673775718 0.004045585706374439 0.0003604496390646887 0.001587532911675343 0.004039756332157761 0.8766941618817218 0.1082242754573629 0.005048238071643003 0.002427351423824664 0.0002162697834388133 0.0009525197470052063 0.002423853799294657 0.5060164971290332 0.3449345652744178 0.1430289428429858 0.01348528568791479 0.001201498796882296 0.005291776372251144 0.01346585444052587 0.03342498405018399 0.9163031404134319 0.01682746023881001 0.003111989004903414 0.0002772689531266836 0.001221179162827187 0.003107504870890585 0.007713457857734769 0.7242750836851509 0.2602935164653664 0.1213675711912332 0.01081348917194066 0.0476259873502603 0.1211926899647328 0.300824856451656 0.246728263720887 0.1514471421492901 0.005516707781419689 0.0004915222350882119 0.002164817606830014 0.005508758634760583 0.01367385711143891 0.01121492107822214 0.9614294155522405 0.5658430467489315 0.01837842707585347 0.03722956340636837 0.1476580489084497 0.1145604519354846 0.1135768775221979 0.002753584402714365 0.1213675711912332 0.01081348917194066 0.0476259873502603 0.1211926899647328 0.300824856451656 0.246728263720887 0.1514471421492901 0.3434472975992693 0.2509011240976616 0.08730216561252167 0.09343272416372772 0.1084020713709713 0.02056068864340725 0.09595392851244081 0.03034189279780829 0.002703372292985166 0.01190649683756508 0.03029817249118321 0.325206214112914 0.5616820659302217 0.03786178553732252 0.007585473199452073 0.0006758430732462914 0.7529766242093913 0.0700745431227958 0.0813015535282285 0.01542051648255544 0.07196544638433063 0.03034189279780829 0.002703372292985166 0.01190649683756508 0.2802981724911832 0.5752062141129139 0.06168206593022175 0.03786178553732252 0.003280204626790086 0.0002922564641065044 0.001287188847304332 0.6519241267558036 0.2784006717959908 0.03369535847894289 0.03112019303106189 0.008669112227945225 0.0007723920837100472 0.003401856239304307 0.3657994778546237 0.3786303468894039 0.1604805902657776 0.082246224439235 0.003915082941652682 0.0003488222313529246 0.001536322172589042 0.003909441611765575 0.7516395114984404 0.169249298829706 0.06940152071449324 0.002582288748749642 0.0002300742377008652 0.001013318879792773 0.00257856787159006 0.4744856352436523 0.4733346439089551 0.04577547110955937 0.01733822445589045 0.001544784167420094 0.006803712478608615 0.01731324142353326 0.04297497949309372 0.8923897519601267 0.02163530602132716 0.003193883452400873 0.0002845655045247542 0.001253315456585797 0.00318928131486139 0.007916443590833053 0.822282322729497 0.1618801879512971 0.1213675711912332 0.01081348917194066 0.0476259873502603 0.1211926899647328 0.300824856451656 0.246728263720887 0.1514471421492901 0.004045585706374439 0.0003604496390646887 0.001587532911675343 0.004039756332157761 0.0100274952150552 0.008224275457362901 0.9717149047383097 0.7123250817105398 0.01345645583334346 0.04039851437111375 0.06741111840684209 0.109982389359792 0.04270005424898442 0.01372638606938443 0.3434472975992694 0.0009011240976617218 0.08730216561252169 0.176766057497061 0.1917354047043046 0.1038940219767406 0.09595392851244083 0.5134263770328559 0.1899418575264047 0.01295965814778646 0.05772906765800464 0.1601318028889345 0.05219448268177777 0.01361675406423601 0.01348528568791479 0.1123126099079934 0.005291776372251145 0.235688076662748 0.3667583173835173 0.2496364737467652 0.01682746023881001 0.0005567319779414366 4.960316133917736e-005 0.7020533302172032 0.07853758114662722 0.14816892135987 0.05159049662257288 0.01904333551444629 0.003111989004903414 0.0002772689531266836 0.2063493842910323 0.08003058179396751 0.3923288424731194 0.2883776477877151 0.02952428569613564 0.0002481954421088613 2.211347478924471e-005 9.739465715799654e-005 0.7364441568301938 0.1744393146348705 0.06798921935321246 0.02075960560766726 0.0006975147769611101 6.214648949391185e-005 0.0002737125709785075 0.3167884637354295 0.4500047405543198 0.1968202773777063 0.03535314449511086 0.0002151907290624701 1.917285314173876e-005 8.444323998273103e-005 0.0002148806559658383 0.8640085547100206 0.09618214231156186 0.0392756155002647 0.0001503935206830646 1.339961483511854e-005 5.90160933708306e-005 0.0001501768153218498 0.5778201051504976 0.3323999111074608 0.08940699769783059 0.0007181513088238648 6.398514302923469e-005 0.0002818105760370432 0.0007171165086670581 0.001780028736400331 0.8594480962350348 0.1369908114920076 0.0001664850084927752 1.483331848002834e-005 6.533057249692771e-005 0.0001662451165497021 0.0004126541240763457 0.716387830265735 0.2827866215941691 0.003034189279780829 0.0002703372292985166 0.001190649683756508 0.003029817249118321 0.007520621411291401 0.006168206593022175 0.9787861785537322 0.0003352695336774397 2.987151704955984e-005 0.0001315635009675699 0.0003347864363666652 0.0008310078907504309 0.0006815697892842183 0.997655931331904 0.6562067567998956 0.02393825582347548 0.02437649984940786 0.04906181773767539 0.1107241054339483 0.1100800983776296 0.02561246597796774 0.3737891903970776 0.003604496390646886 0.01587532911675343 0.3737308966549109 0.100274952150552 0.08224275457362899 0.05048238071643002 0.4835377204865753 0.1743831951813887 0.00207069510218523 0.005269247389770993 0.1869923850631155 0.1411620984226473 0.00658465835431696 0.2242735142382467 0.2021626978343881 0.009525197470052061 0.02423853799294657 0.2601649712903312 0.2493456527441774 0.03028942842985802 0.003111989004903414 0.0002772689531266836 0.6166057945474426 0.05438955615294186 0.135918586062863 0.1345314939415612 0.05516531133716129 0.02022792853187219 0.001802248195323444 0.007937664558376719 0.5201987816607888 0.3834708094086093 0.04112137728681451 0.02524119035821502 0.002247547614652466 0.0002002497994803827 0.0008819627287085242 0.7615035683326803 0.06112638623058623 0.1156801530318683 0.0583601322620239 0.003792736599726036 0.0003379215366231457 0.001488312104695634 0.4100372715613979 0.3844007767641143 0.1952102582412777 0.004732723192165315 0.00198963231461038 0.0001772703142941092 0.0007807538909878738 0.001986765409257915 0.8573905714172403 0.08601193874952275 0.05166306790408673 0.001113463955882873 9.920632267835471e-005 0.000436935663763856 0.001111859540960852 0.5532185766646941 0.3692360391167054 0.07478391873531459 0.008669112227945225 0.0007723920837100472 0.003401856239304307 0.00865662071176663 0.02148748974654686 0.9461948759800634 0.01081765301066358 0.001251212074136424 0.0001114792698138213 0.0004909895603119618 0.001249409174894153 0.003101287179913979 0.7654301882857822 0.2283654344551473 0.03034189279780829 0.002703372292985166 0.01190649683756508 0.03029817249118321 0.075206214112914 0.06168206593022175 0.7878617855373226 0.002697057137582959 0.0002402997593764592 0.001058355274450229 0.002693170888105174 0.006684996810036801 0.005482850304908601 0.9811432698255398 0.7972885369376287 0.0003728789369634711 0.001642275425871045 0.03866181689533561 0.07933878815350537 0.07747338840416851 0.005222315246527245 0.1213675711912332 0.01081348917194066 0.0476259873502603 0.1211926899647328 0.300824856451656 0.246728263720887 0.1514471421492901 0.235707507910137 0.3345348321302156 0.005291776372251145 0.01346585444052587 0.1445360951612951 0.2496364737467652 0.01682746023881001 0.1213675711912332 0.01081348917194066 0.0476259873502603 0.1211926899647328 0.300824856451656 0.246728263720887 0.1514471421492901 0.01733822445589045 0.001544784167420094 0.8639465696214657 0.01731324142353326 0.04297497949309372 0.03524689481726957 0.02163530602132716 0.1213675711912332 0.01081348917194066 0.0476259873502603 0.1211926899647328 0.300824856451656 0.246728263720887 0.1514471421492901 0.008091171412748878 0.0007208992781293775 0.003175065823350687 0.7414128459976489 0.1533883237634437 0.08311521758139247 0.01009647614328601 0.01733822445589045 0.001544784167420095 0.006803712478608615 0.303027527137819 0.3286892652073795 0.3209611805315553 0.02163530602132716 0.006068378559561658 0.0005406744585970332 0.002381299367513015 0.006059634498236642 0.8150412428225828 0.1623364131860444 0.007572357107464504 0.003792736599726036 0.0003379215366231457 0.001488312104695634 0.003787271561397901 0.5719007767641142 0.2889602582412777 0.1297327231921653 0.02427351423824663 0.002162697834388133 0.009525197470052061 0.02423853799294657 0.06016497129033121 0.8493456527441774 0.03028942842985802 0.007585473199452073 0.0006758430732462914 0.002976624209391269 0.007574543122795802 0.0188015535282285 0.5154205164825555 0.4469654463843306 0.06068378559561658 0.005406744585970331 0.02381299367513015 0.06059634498236641 0.150412428225828 0.1233641318604435 0.575723571074645 0.007585473199452073 0.0006758430732462914 0.002976624209391269 0.007574543122795802 0.0188015535282285 0.01542051648255544 0.9469654463843307 0.6707122523730412 0.0003604496390646888 0.03492086624500868 0.1040397563321578 0.1766941618817219 0.008224275457362902 0.005048238071643004 0.1213675711912332 0.01081348917194066 0.0476259873502603 0.1211926899647328 0.300824856451656 0.246728263720887 0.1514471421492901 0.2242735142382467 0.2021626978343881 0.209525197470052 0.02423853799294657 0.2601649712903312 0.0493456527441774 0.03028942842985802 0.5606837855956166 0.005406744585970331 0.02381299367513015 0.06059634498236641 0.150412428225828 0.1233641318604435 0.07572357107464504 0.01213675711912331 0.001081348917194066 0.7047625987350259 0.1121192689964733 0.1300824856451656 0.0246728263720887 0.01514471421492901 0.06068378559561658 0.005406744585970331 0.02381299367513015 0.06059634498236641 0.650412428225828 0.1233641318604435 0.07572357107464504 0.005779408151963483 0.0005149280558066981 0.002267904159536205 0.6724377471411778 0.2524202312596027 0.01174896493908986 0.05483081629282333 0.01348528568791479 0.001201498796882296 0.005291776372251145 0.4579102988849703 0.3667583173835173 0.1385253626356541 0.01682746023881001 0.007585473199452073 0.0006758430732462914 0.002976624209391269 0.007574543122795802 0.7063015535282285 0.2029205164825554 0.07196544638433063 0.00346764489117809 0.0003089568334840189 0.001360742495721723 0.003462648284706652 0.5514521387557616 0.4070493789634539 0.032898489775694 0.02022792853187219 0.001802248195323444 0.007937664558376717 0.0201987816607888 0.050137476075276 0.8744547106201478 0.02524119035821501 0.004495095229304932 0.0004004995989607652 0.001763925457417048 0.004488618146841956 0.01114166135006133 0.823952898656329 0.1537573015610848 0.1213675711912332 0.01081348917194066 0.0476259873502603 0.1211926899647328 0.300824856451656 0.246728263720887 0.1514471421492901 0.009335967014710244 0.000831806859380051 0.003663537488481562 0.009322514612671756 0.02314037357320431 0.018979097209299 0.9347267032422532 0.6900356350194082 0.003168694323423012 0.05344083381614502 0.0505366542005164 0.1263348741581556 0.04779538640664855 0.0286879220757031 0.1601953673130333 0.001544784167420095 0.006803712478608615 0.303027527137819 0.4715464080645223 0.03524689481726958 0.02163530602132716 0.4590782015999181 0.2150543316745041 0.04717407464813327 0.04786161392490405 0.1336525687518846 0.06772643237122324 0.02945277702943262 0.1767806309326028 0.0009011240976617218 0.003968832279188358 0.09343272416372773 0.525068738037638 0.1872273553100739 0.01262059517910751 0.0008487242740645676 7.561880539818645e-005 0.6646687131982536 0.07777057825150163 0.1769288451500116 0.07165544240364258 0.008052077917127903 0.008669112227945225 0.0007723920837100472 0.2176875705250186 0.00865662071176663 0.3786303468894039 0.2319091616943491 0.1536747958678064 0.0004381500765026468 3.903786704671719e-005 0.0001719349723836112 0.708018746173158 0.1671509922615583 0.08392320672823425 0.04025793192111658 0.001178325933895468 0.0001049853317664142 0.0004623882267015563 0.3895261426210168 0.4009788821014724 0.1480264879972902 0.05972278778785717 0.0003026622722973396 2.696630716194679e-005 0.0001187680482550132 0.0003022261595130494 0.8461367203402784 0.1028596714806007 0.05025298539189349 0.000257134684727189 2.290993468631497e-005 0.0001009025155725854 0.000256764173654095 0.5218237814755333 0.364929509033307 0.1126089981825197 0.0008794751535596607 7.835861718797581e-005 0.0003451158503642051 0.0008782078982951655 0.002179890264142435 0.8496139729255137 0.1460249792909369 0.0002235130224516265 1.991434469970656e-005 8.770900064504659e-005 0.0002231909575777768 0.0005540052605002873 0.6818540115353976 0.317037655878728 0.002427351423824663 0.0002162697834388133 0.000952519747005206 0.002423853799294657 0.00601649712903312 0.00493456527441774 0.9830289428429858 0.0002989349044119044 2.663420978310508e-005 0.0001173053875622175 0.0002985041624747114 0.0007409479222947193 0.0006077050830563719 0.9979099683304169 0.6754109148306007 0.0002079517148450127 0.0009158843721203904 0.1561767824993218 0.06347740108560877 0.1008986204561709 0.002912445041332502 0.06068378559561658 0.005406744585970331 0.02381299367513015 0.5605963449823664 0.150412428225828 0.1233641318604435 0.07572357107464504 0.5414245047460821 0.1340542326114627 0.003175065823350686 0.1414128459976488 0.1533883237634437 0.0164485509147258 0.010096476143286 0.06068378559561658 0.005406744585970331 0.02381299367513015 0.06059634498236641 0.650412428225828 0.1233641318604435 0.07572357107464504 0.005779408151963483 0.0005149280558066981 0.7641726660642981 0.0533901280935587 0.1095630884024598 0.05936801255813747 0.007211768673775718 0.06068378559561658 0.005406744585970331 0.02381299367513015 0.06059634498236641 0.150412428225828 0.6233641318604435 0.07572357107464504 0.003915082941652682 0.0003488222313529246 0.001536322172589042 0.7458449254827333 0.203252414724247 0.0402170407651899 0.004885391682235164 0.008669112227945225 0.0007723920837100472 0.003401856239304307 0.2943709064260523 0.3786303468894039 0.2319091616943491 0.082246224439235 0.003034189279780829 0.0002703372292985166 0.001190649683756508 0.003029817249118321 0.8325206214112915 0.1061682065930222 0.05378617855373226 0.001379176945354922 0.000122880558772053 0.0005412044017075034 0.001377189658690146 0.5034184642778597 0.3323491848150101 0.1608118993426056 0.008669112227945225 0.0007723920837100472 0.003401856239304307 0.00865662071176663 0.02148748974654686 0.8033377331229206 0.1536747958678064 0.001957541470826341 0.0001744111156764623 0.000768161086294521 0.001954720805882788 0.004852013813736387 0.6491407784471112 0.3411523732604724 0.01733822445589045 0.001544784167420094 0.006803712478608615 0.01731324142353326 0.04297497949309372 0.03524689481726957 0.8787781631641842 0.00209254433088333 0.0001864394684817356 0.0008211377129355225 0.00208952913732298 0.005186635456063035 0.004253935581394604 0.9853697783129187 0.8080911714127488 0.0007208992781293775 0.003175065823350687 0.0747461793309822 0.0200549904301104 0.08311521758139247 0.01009647614328601 0.1213675711912332 0.01081348917194066 0.0476259873502603 0.1211926899647328 0.300824856451656 0.246728263720887 0.1514471421492901 0.3535612618652055 0.1684689148619901 0.007937664558376717 0.0201987816607888 0.3834708094086093 0.0411213772868145 0.02524119035821501 0.1213675711912332 0.01081348917194066 0.0476259873502603 0.1211926899647328 0.300824856451656 0.246728263720887 0.1514471421492901 0.02022792853187219 0.001802248195323444 0.5079376645583767 0.02019878166078881 0.2168041427419427 0.2077880439534812 0.02524119035821502 0.1213675711912332 0.01081348917194066 0.0476259873502603 0.1211926899647328 0.300824856451656 0.246728263720887 0.1514471421492901 0.006387766904801745 0.0005691310090495085 0.002506630913171594 0.532694352103407 0.1210960450764029 0.2235120138800467 0.1132340601131205 0.02022792853187219 0.001802248195323444 0.007937664558376719 0.3535321149941221 0.5501374760752761 0.04112137728681451 0.02524119035821502 0.009335967014710244 0.000831806859380051 0.003663537488481562 0.009322514612671756 0.6385249889578197 0.1728252510554528 0.1654959340114839 0.005516707781419689 0.0004915222350882119 0.002164817606830014 0.005508758634760583 0.3773102207478025 0.4657603756236767 0.1432475973704223 0.04045585706374438 0.003604496390646886 0.01587532911675343 0.0403975633215776 0.100274952150552 0.7489094212402955 0.05048238071643002 0.006068378559561658 0.0005406744585970332 0.002381299367513015 0.006059634498236642 0.0150412428225828 0.6123364131860445 0.3575723571074645 0.04045585706374438 0.003604496390646887 0.01587532911675343 0.04039756332157761 0.100274952150552 0.08224275457362901 0.7171490473830967 0.008091171412748878 0.0007208992781293775 0.003175065823350687 0.008079512664315521 0.0200549904301104 0.0164485509147258 0.9434298094766194 0.7289648650661795 0.0006007493984411478 0.002645888186125572 0.117844038331374 0.1278236031362031 0.0137071257622715 0.008413730119405004 0.06068378559561658 0.005406744585970331 0.02381299367513015 0.5605963449823664 0.150412428225828 0.1233641318604435 0.07572357107464504 0.5202279285318723 0.001802248195323444 0.007937664558376719 0.02019878166078881 0.3834708094086093 0.04112137728681451 0.02524119035821502 0.5606837855956166 0.005406744585970331 0.02381299367513015 0.06059634498236641 0.150412428225828 0.1233641318604435 0.07572357107464504 0.01733822445589045 0.001544784167420094 0.57823228390718 0.01731324142353326 0.3286892652073794 0.03524689481726957 0.02163530602132716 0.06068378559561658 0.005406744585970331 0.02381299367513015 0.06059634498236641 0.650412428225828 0.1233641318604435 0.07572357107464504 0.007585473199452073 0.0006758430732462914 0.002976624209391269 0.6950745431227958 0.0813015535282285 0.1404205164825554 0.07196544638433063 0.009335967014710244 0.000831806859380051 0.003663537488481562 0.3939378992280564 0.4077557581885889 0.09590217413237592 0.08857285708840693 0.005276850921357963 0.0004701517031278549 0.00207069510218523 0.005269247389770993 0.6217749937587677 0.2715968810313429 0.0935411800934474 0.00269705713758296 0.0002402997593764592 0.001058355274450229 0.002693170888105174 0.4289072190322591 0.4054828503049087 0.1589210476033176 0.01103341556283938 0.0009830444701764238 0.004329635213660027 0.01101751726952117 0.02734771422287782 0.8406116603382624 0.1046770129226627 0.008091171412748878 0.0007208992781293775 0.003175065823350687 0.008079512664315521 0.0200549904301104 0.6164485509147258 0.3434298094766193 0.02427351423824663 0.002162697834388133 0.009525197470052061 0.02423853799294657 0.06016497129033121 0.0493456527441774 0.830289428429858 0.005779408151963483 0.0005149280558066981 0.002267904159536205 0.005771080474511086 0.01432499316436457 0.01174896493908986 0.959592721054728</probabilities>
		</cpt>
		<cpt id="ret_close_t2">
			<state id="baisse" />
			<state id="hausse" />
			<parents>mvq200 slr ret_close_t1</parents>
			<probabilities>0.7543716380636692 0.2456283619363307 0.2596659262018603 0.7403340737981398 0.7699605330387127 0.2300394669612874 0.2523359647206271 0.747664035279373 0.7369273649454438 0.2630726350545561 0.2897534616341498 0.7102465383658503 0.721105326308302 0.2788946736916979 0.2347801144304579 0.7652198855695422 0.7544991039115608 0.2455008960884392 0.2339680625921311 0.766031937407869 0.7786067254242236 0.2213932745757764 0.2648965914482008 0.7351034085517993 0.7700358676745659 0.2299641323254341 0.2234463172076934 0.7765536827923066 0.6960451887020623 0.3039548112979377 0.2007190444804207 0.7992809555195793 0.7470947115055344 0.2529052884944656 0.2293014646620017 0.7706985353379984 0.712435581946577 0.287564418053423 0.2250684325478197 0.7749315674521803 0.7838878255730313 0.2161121744269688 0.1837487334031696 0.8162512665968303 0.752950769535127 0.2470492304648731 0.2107820948363317 0.7892179051636683 0.7365254820653712 0.2634745179346287 0.204058616293627 0.795941383706373 0.7557178958127329 0.244282104187267 0.2004275399613312 0.7995724600386688 0.5846595571426362 0.4153404428573639 0.2249152311902588 0.7750847688097411 0.6561864233926942 0.3438135766073059 0.1542012113980376 0.8457987886019623</probabilities>
		</cpt>
	</nodes>
	<extensions>
		<genie version="1.0" app="GeNIe 2.0.5406.0" name="data_btc_usdc_3m" faultnameformat="nodestate">
			<node id="hammer">
				<name>hammer</name>
				<interior color="e5f6f7" />
				<outline color="000080" />
				<font color="000000" name="Arial" size="8" />
				<position>177 93 249 141</position>
				<barchart active="true" width="128" height="112" />
			</node>
			<node id="slbr">
				<name>slbr</name>
				<interior color="e5f6f7" />
				<outline color="000080" />
				<font color="000000" name="Arial" size="8" />
				<position>362 78 434 126</position>
				<barchart active="true" width="128" height="80" />
			</node>
			<node id="slr">
				<name>slr</name>
				<interior color="e5f6f7" />
				<outline color="000080" />
				<font color="000000" name="Arial" size="8" />
				<position>248 296 320 344</position>
				<barchart active="true" width="128" height="80" />
			</node>
			<node id="mvq50">
				<name>mvq50</name>
				<interior color="e5f6f7" />
				<outline color="000080" />
				<font color="000000" name="Arial" size="8" />
				<position>720 75 792 123</position>
				<barchart active="true" width="128" height="80" />
			</node>
			<node id="mvq100">
				<name>mvq100</name>
				<interior color="e5f6f7" />
				<outline color="000080" />
				<font color="000000" name="Arial" size="8" />
				<position>922 78 994 126</position>
				<barchart active="true" width="128" height="80" />
			</node>
			<node id="mvq200">
				<name>mvq200</name>
				<interior color="e5f6f7" />
				<outline color="000080" />
				<font color="000000" name="Arial" size="8" />
				<position>241 438 313 486</position>
				<barchart active="true" width="128" height="80" />
			</node>
			<node id="ret_low_t1">
				<name>ret_low_t1</name>
				<interior color="e5f6f7" />
				<outline color="000080" />
				<font color="000000" name="Arial" size="8" />
				<position>619 499 691 547</position>
				<barchart active="true" width="128" height="128" />
			</node>
			<node id="ret_high_t1">
				<name>ret_high_t1</name>
				<interior color="e5f6f7" />
				<outline color="000080" />
				<font color="000000" name="Arial" size="8" />
				<position>617 252 689 300</position>
				<barchart active="true" width="128" height="128" />
			</node>
			<node id="ret_close_t1">
				<name>ret_close_t1</name>
				<interior color="e5f6f7" />
				<outline color="000080" />
				<font color="000000" name="Arial" size="8" />
				<position>619 372 691 420</position>
				<barchart active="true" width="128" height="64" />
			</node>
			<node id="ret_low_t2">
				<name>ret_low_t2</name>
				<interior color="e5f6f7" />
				<outline color="000080" />
				<font color="000000" name="Arial" size="8" />
				<position>1060 516 1132 564</position>
				<barchart active="true" width="128" height="128" />
			</node>
			<node id="ret_high_t2">
				<name>ret_high_t2</name>
				<interior color="e5f6f7" />
				<outline color="000080" />
				<font color="000000" name="Arial" size="8" />
				<position>1067 243 1139 291</position>
				<barchart active="true" width="128" height="128" />
			</node>
			<node id="ret_close_t2">
				<name>ret_close_t2</name>
				<interior color="e5f6f7" />
				<outline color="000080" />
				<font color="000000" name="Arial" size="8" />
				<position>1068 374 1140 422</position>
				<barchart active="true" width="128" height="64" />
			</node>
		</genie>
	</extensions>
</smile>
